<?xml version="1.0"?>
<opencv_storage>
<cascade>
  <stageType>BOOST</stageType>
  <featureType>HAAR</featureType>
  <height>20</height>
  <width>20</width>
  <stageParams>
    <boostType>GAB</boostType>
    <minHitRate>9.9500000476837158e-01</minHitRate>
    <maxFalseAlarm>5.0000000000000000e-01</maxFalseAlarm>
    <weightTrimRate>9.4999999999999996e-01</weightTrimRate>
    <maxDepth>1</maxDepth>
    <maxWeakCount>100</maxWeakCount></stageParams>
  <featureParams>
    <maxCatCount>0</maxCatCount>
    <featSize>1</featSize>
    <mode>BASIC</mode></featureParams>
  <stageNum>10</stageNum>
  <stages>
    <!-- stage 0 -->
    <_>
      <maxWeakCount>12</maxWeakCount>
      <stageThreshold>-9.4081485271453857e-01</stageThreshold>
      <weakClassifiers>
        <_>
          <internalNodes>
            0 -1 230 8.0463872291147709e-04</internalNodes>
          <leafValues>
            3.4704368561506271e-02 7.3951047658920288e-01</leafValues></_>
        <_>
          <internalNodes>
            0 -1 2 -6.3421130180358887e-03</internalNodes>
          <leafValues>
            6.7207622528076172e-01 -1.3582478463649750e-01</leafValues></_>
        <_>
          <internalNodes>
            0 -1 13 2.7210656553506851e-03</internalNodes>
          <leafValues>
            -3.0823200941085815e-01 5.3810572624206543e-01</leafValues></_>
        <_>
          <internalNodes>
            0 -1 148 7.7306511811912060e-03</internalNodes>
          <leafValues>
            -3.0289319157600403e-01 4.0187880396842957e-01</leafValues></_>
        <_>
          <internalNodes>
            0 -1 242 -3.4918126184493303e-03</internalNodes>
          <leafValues>
            5.1366001367568970e-01 -2.2746995091438293e-01</leafValues></_>
        <_>
          <internalNodes>
            0 -1 98 -1.0415305383503437e-02</internalNodes>
          <leafValues>
            5.4145330190658569e-01 -2.1591460704803467e-01</leafValues></_>
        <_>
          <internalNodes>
            0 -1 24 1.5151468105614185e-03</internalNodes>
          <leafValues>
            -2.1769742667675018e-01 4.9169868230819702e-01</leafValues></_>
        <_>
          <internalNodes>
            0 -1 272 -5.1274606958031654e-03</internalNodes>
          <leafValues>
            5.0899052619934082e-01 -1.9853185117244720e-01</leafValues></_>
        <_>
          <internalNodes>
            0 -1 79 -2.2665722295641899e-02</internalNodes>
          <leafValues>
            6.2762171030044556e-01 -1.6407355666160583e-01</leafValues></_>
        <_>
          <internalNodes>
            0 -1 198 -9.7615048289299011e-03</internalNodes>
          <leafValues>
            4.4588720798492432e-01 -2.1494965255260468e-01</leafValues></_>
        <_>
          <internalNodes>
            0 -1 107 1.8454680219292641e-02</internalNodes>
          <leafValues>
            -1.5322878956794739e-01 5.1110810041427612e-01</leafValues></_>
        <_>
          <internalNodes>
            0 -1 57 5.9800263261422515e-04</internalNodes>
          <leafValues>
            -2.0856267213821411e-01 4.1080358624458313e-01</leafValues></_></weakClassifiers></_>
    <!-- stage 1 -->
    <_>
      <maxWeakCount>23</maxWeakCount>
      <stageThreshold>-1.0450671911239624e+00</stageThreshold>
      <weakClassifiers>
        <_>
          <internalNodes>
            0 -1 268 -1.2184244580566883e-02</internalNodes>
          <leafValues>
            7.5628143548965454e-01 1.5651260316371918e-01</leafValues></_>
        <_>
          <internalNodes>
            0 -1 182 -7.4686463922262192e-03</internalNodes>
          <leafValues>
            5.7519215345382690e-01 -1.2486255168914795e-01</leafValues></_>
        <_>
          <internalNodes>
            0 -1 90 -9.6975602209568024e-03</internalNodes>
          <leafValues>
            4.5789015293121338e-01 -1.8942393362522125e-01</leafValues></_>
        <_>
          <internalNodes>
            0 -1 72 -5.7807518169283867e-03</internalNodes>
          <leafValues>
            4.3211239576339722e-01 -2.1545580029487610e-01</leafValues></_>
        <_>
          <internalNodes>
            0 -1 275 -1.8274803878739476e-03</internalNodes>
          <leafValues>
            3.9096599817276001e-01 -2.3759184777736664e-01</leafValues></_>
        <_>
          <internalNodes>
            0 -1 123 -2.3318121209740639e-02</internalNodes>
          <leafValues>
            -6.1831742525100708e-01 1.7002071440219879e-01</leafValues></_>
        <_>
          <internalNodes>
            0 -1 6 3.0713467858731747e-03</internalNodes>
          <leafValues>
            -2.1501477062702179e-01 4.2865672707557678e-01</leafValues></_>
        <_>
          <internalNodes>
            0 -1 145 1.5934149269014597e-04</internalNodes>
          <leafValues>
            -2.7857279777526855e-01 2.8527861833572388e-01</leafValues></_>
        <_>
          <internalNodes>
            0 -1 233 7.3436209931969643e-03</internalNodes>
          <leafValues>
            -1.8566496670246124e-01 4.5250445604324341e-01</leafValues></_>
        <_>
          <internalNodes>
            0 -1 231 -9.7346073016524315e-03</internalNodes>
          <leafValues>
            5.3656893968582153e-01 -1.3536812365055084e-01</leafValues></_>
        <_>
          <internalNodes>
            0 -1 14 -1.4072770718485117e-03</internalNodes>
          <leafValues>
            3.4450945258140564e-01 -1.9714471697807312e-01</leafValues></_>
        <_>
          <internalNodes>
            0 -1 147 6.3068838790059090e-03</internalNodes>
          <leafValues>
            -1.6219154000282288e-01 3.7517771124839783e-01</leafValues></_>
        <_>
          <internalNodes>
            0 -1 85 3.4438807051628828e-03</internalNodes>
          <leafValues>
            -1.5955439209938049e-01 3.6136740446090698e-01</leafValues></_>
        <_>
          <internalNodes>
            0 -1 114 -1.3311147922649980e-03</internalNodes>
          <leafValues>
            3.1643795967102051e-01 -1.8904837965965271e-01</leafValues></_>
        <_>
          <internalNodes>
            0 -1 259 4.0465388447046280e-03</internalNodes>
          <leafValues>
            8.7139301002025604e-02 -6.8916833400726318e-01</leafValues></_>
        <_>
          <internalNodes>
            0 -1 206 5.3443084470927715e-04</internalNodes>
          <leafValues>
            -1.9904534518718719e-01 2.7688378095626831e-01</leafValues></_>
        <_>
          <internalNodes>
            0 -1 179 2.3823427036404610e-02</internalNodes>
          <leafValues>
            -1.4203885197639465e-01 5.0587445497512817e-01</leafValues></_>
        <_>
          <internalNodes>
            0 -1 251 2.3699665907770395e-03</internalNodes>
          <leafValues>
            1.2587261199951172e-01 -4.8804646730422974e-01</leafValues></_>
        <_>
          <internalNodes>
            0 -1 168 -5.0733238458633423e-03</internalNodes>
          <leafValues>
            3.6986812949180603e-01 -1.5130704641342163e-01</leafValues></_>
        <_>
          <internalNodes>
            0 -1 48 5.3341016173362732e-03</internalNodes>
          <leafValues>
            -1.0346428304910660e-01 4.9897781014442444e-01</leafValues></_>
        <_>
          <internalNodes>
            0 -1 4 1.1073041707277298e-02</internalNodes>
          <leafValues>
            -1.2820456922054291e-01 4.2917618155479431e-01</leafValues></_>
        <_>
          <internalNodes>
            0 -1 18 -5.4299667477607727e-02</internalNodes>
          <leafValues>
            3.3630052208900452e-01 -1.6123408079147339e-01</leafValues></_>
        <_>
          <internalNodes>
            0 -1 27 2.6958890259265900e-02</internalNodes>
          <leafValues>
            -1.3052095472812653e-01 3.8626560568809509e-01</leafValues></_></weakClassifiers></_>
    <!-- stage 2 -->
    <_>
      <maxWeakCount>25</maxWeakCount>
      <stageThreshold>-8.0008524656295776e-01</stageThreshold>
      <weakClassifiers>
        <_>
          <internalNodes>
            0 -1 273 -7.4739390984177589e-03</internalNodes>
          <leafValues>
            6.1938959360122681e-01 1.3240857422351837e-01</leafValues></_>
        <_>
          <internalNodes>
            0 -1 45 2.5478214956820011e-03</internalNodes>
          <leafValues>
            -1.6797608137130737e-01 4.3401727080345154e-01</leafValues></_>
        <_>
          <internalNodes>
            0 -1 211 5.0770156085491180e-03</internalNodes>
          <leafValues>
            -2.1860741078853607e-01 3.0240598320960999e-01</leafValues></_>
        <_>
          <internalNodes>
            0 -1 95 8.3268098533153534e-03</internalNodes>
          <leafValues>
            -1.4302065968513489e-01 5.5706775188446045e-01</leafValues></_>
        <_>
          <internalNodes>
            0 -1 105 -1.7730658873915672e-03</internalNodes>
          <leafValues>
            3.4889397025108337e-01 -2.1093659102916718e-01</leafValues></_>
        <_>
          <internalNodes>
            0 -1 160 -6.5767962951213121e-04</internalNodes>
          <leafValues>
            3.2599160075187683e-01 -1.7919906973838806e-01</leafValues></_>
        <_>
          <internalNodes>
            0 -1 66 -5.2633089944720268e-04</internalNodes>
          <leafValues>
            3.4571912884712219e-01 -2.0510984957218170e-01</leafValues></_>
        <_>
          <internalNodes>
            0 -1 143 -2.4752024561166763e-02</internalNodes>
          <leafValues>
            5.5166107416152954e-01 -1.1521704494953156e-01</leafValues></_>
        <_>
          <internalNodes>
            0 -1 177 5.2181864157319069e-03</internalNodes>
          <leafValues>
            -1.3671171665191650e-01 4.4195866584777832e-01</leafValues></_>
        <_>
          <internalNodes>
            0 -1 124 -5.2579291164875031e-02</internalNodes>
          <leafValues>
            7.0476460456848145e-01 -7.5326487421989441e-02</leafValues></_>
        <_>
          <internalNodes>
            0 -1 285 4.0521466871723533e-05</internalNodes>
          <leafValues>
            -2.8232428431510925e-01 2.5300037860870361e-01</leafValues></_>
        <_>
          <internalNodes>
            0 -1 184 3.1378194689750671e-02</internalNodes>
          <leafValues>
            -1.9963252544403076e-01 3.3745163679122925e-01</leafValues></_>
        <_>
          <internalNodes>
            0 -1 215 2.7793911285698414e-03</internalNodes>
          <leafValues>
            -1.6623875498771667e-01 3.6977478861808777e-01</leafValues></_>
        <_>
          <internalNodes>
            0 -1 245 -2.3198404815047979e-03</internalNodes>
          <leafValues>
            2.8616854548454285e-01 -2.0627176761627197e-01</leafValues></_>
        <_>
          <internalNodes>
            0 -1 19 -1.8262468278408051e-02</internalNodes>
          <leafValues>
            3.7827670574188232e-01 -1.5672662854194641e-01</leafValues></_>
        <_>
          <internalNodes>
            0 -1 80 1.1714834719896317e-01</internalNodes>
          <leafValues>
            -8.1462666392326355e-02 6.2710690498352051e-01</leafValues></_>
        <_>
          <internalNodes>
            0 -1 81 -4.5929368585348129e-02</internalNodes>
          <leafValues>
            5.2098983526229858e-01 -1.2283398956060410e-01</leafValues></_>
        <_>
          <internalNodes>
            0 -1 133 1.3021519407629967e-02</internalNodes>
          <leafValues>
            -1.3524444401264191e-01 4.2943242192268372e-01</leafValues></_>
        <_>
          <internalNodes>
            0 -1 60 -6.6699311137199402e-03</internalNodes>
          <leafValues>
            4.7065788507461548e-01 -1.0467268526554108e-01</leafValues></_>
        <_>
          <internalNodes>
            0 -1 23 6.1144791543483734e-03</internalNodes>
          <leafValues>
            -1.5585510432720184e-01 3.5450664162635803e-01</leafValues></_>
        <_>
          <internalNodes>
            0 -1 126 3.9575956761837006e-03</internalNodes>
          <leafValues>
            8.1417649984359741e-02 -7.4594587087631226e-01</leafValues></_>
        <_>
          <internalNodes>
            0 -1 145 3.0807065195403993e-04</internalNodes>
          <leafValues>
            -2.3290176689624786e-01 2.3335607349872589e-01</leafValues></_>
        <_>
          <internalNodes>
            0 -1 29 6.8340073339641094e-03</internalNodes>
          <leafValues>
            -1.0578528046607971e-01 4.9293047189712524e-01</leafValues></_>
        <_>
          <internalNodes>
            0 -1 164 2.5109928101301193e-02</internalNodes>
          <leafValues>
            -6.0486141592264175e-02 7.3262923955917358e-01</leafValues></_>
        <_>
          <internalNodes>
            0 -1 239 7.6054572127759457e-04</internalNodes>
          <leafValues>
            -1.3753765821456909e-01 3.3356127142906189e-01</leafValues></_></weakClassifiers></_>
    <!-- stage 3 -->
    <_>
      <maxWeakCount>29</maxWeakCount>
      <stageThreshold>-7.7266597747802734e-01</stageThreshold>
      <weakClassifiers>
        <_>
          <internalNodes>
            0 -1 279 -4.7095892950892448e-03</internalNodes>
          <leafValues>
            6.3248729705810547e-01 1.6151604056358337e-01</leafValues></_>
        <_>
          <internalNodes>
            0 -1 195 -6.0660238377749920e-03</internalNodes>
          <leafValues>
            4.6071490645408630e-01 -1.2983977794647217e-01</leafValues></_>
        <_>
          <internalNodes>
            0 -1 257 2.6077060028910637e-03</internalNodes>
          <leafValues>
            6.0429625213146210e-02 -6.8596059083938599e-01</leafValues></_>
        <_>
          <internalNodes>
            0 -1 255 3.9026483427733183e-03</internalNodes>
          <leafValues>
            7.5750336050987244e-02 -6.1426901817321777e-01</leafValues></_>
        <_>
          <internalNodes>
            0 -1 25 9.2179037630558014e-02</internalNodes>
          <leafValues>
            -1.2032588571310043e-01 4.2245930433273315e-01</leafValues></_>
        <_>
          <internalNodes>
            0 -1 192 -1.6464870423078537e-02</internalNodes>
          <leafValues>
            4.0118956565856934e-01 -1.5995912253856659e-01</leafValues></_>
        <_>
          <internalNodes>
            0 -1 92 -6.2978696078062057e-03</internalNodes>
          <leafValues>
            3.4631034731864929e-01 -1.4266289770603180e-01</leafValues></_>
        <_>
          <internalNodes>
            0 -1 154 -1.4352831989526749e-02</internalNodes>
          <leafValues>
            4.6096691489219666e-01 -1.3257469236850739e-01</leafValues></_>
        <_>
          <internalNodes>
            0 -1 125 1.2778965174220502e-04</internalNodes>
          <leafValues>
            -2.3904673755168915e-01 2.4323143064975739e-01</leafValues></_>
        <_>
          <internalNodes>
            0 -1 254 2.9121576808393002e-03</internalNodes>
          <leafValues>
            -1.4523151516914368e-01 3.5454988479614258e-01</leafValues></_>
        <_>
          <internalNodes>
            0 -1 267 -4.9490239471197128e-03</internalNodes>
          <leafValues>
            2.0672701299190521e-01 -2.5005185604095459e-01</leafValues></_>
        <_>
          <internalNodes>
            0 -1 128 -4.0401648730039597e-03</internalNodes>
          <leafValues>
            -3.3970704674720764e-01 1.5396940708160400e-01</leafValues></_>
        <_>
          <internalNodes>
            0 -1 155 -2.1626688539981842e-02</internalNodes>
          <leafValues>
            5.6926858425140381e-01 -9.0670071542263031e-02</leafValues></_>
        <_>
          <internalNodes>
            0 -1 28 1.4630666933953762e-02</internalNodes>
          <leafValues>
            -1.1383815854787827e-01 4.2597797513008118e-01</leafValues></_>
        <_>
          <internalNodes>
            0 -1 96 4.8186304047703743e-03</internalNodes>
          <leafValues>
            -1.5034931898117065e-01 3.6079412698745728e-01</leafValues></_>
        <_>
          <internalNodes>
            0 -1 104 -1.9558498170226812e-03</internalNodes>
          <leafValues>
            3.6288890242576599e-01 -1.6132146120071411e-01</leafValues></_>
        <_>
          <internalNodes>
            0 -1 86 1.7304508946835995e-03</internalNodes>
          <leafValues>
            1.0419356822967529e-01 -5.0821125507354736e-01</leafValues></_>
        <_>
          <internalNodes>
            0 -1 247 1.5041003935039043e-03</internalNodes>
          <leafValues>
            9.6242524683475494e-02 -4.8017910122871399e-01</leafValues></_>
        <_>
          <internalNodes>
            0 -1 204 3.9940409362316132e-02</internalNodes>
          <leafValues>
            -7.5173862278461456e-02 6.4206707477569580e-01</leafValues></_>
        <_>
          <internalNodes>
            0 -1 207 4.4122603139840066e-04</internalNodes>
          <leafValues>
            -2.5095984339714050e-01 2.2237157821655273e-01</leafValues></_>
        <_>
          <internalNodes>
            0 -1 132 6.4820107072591782e-03</internalNodes>
          <leafValues>
            5.8437988162040710e-02 -8.6774384975433350e-01</leafValues></_>
        <_>
          <internalNodes>
            0 -1 73 -4.3583344668149948e-03</internalNodes>
          <leafValues>
            4.0426623821258545e-01 -1.1635605990886688e-01</leafValues></_>
        <_>
          <internalNodes>
            0 -1 129 -1.3696316163986921e-03</internalNodes>
          <leafValues>
            -5.1257765293121338e-01 9.3507207930088043e-02</leafValues></_>
        <_>
          <internalNodes>
            0 -1 149 1.9998257630504668e-04</internalNodes>
          <leafValues>
            -2.2224424779415131e-01 2.4337549507617950e-01</leafValues></_>
        <_>
          <internalNodes>
            0 -1 194 7.8096063807606697e-03</internalNodes>
          <leafValues>
            -1.2033607810735703e-01 3.9175313711166382e-01</leafValues></_>
        <_>
          <internalNodes>
            0 -1 164 -1.1480746790766716e-02</internalNodes>
          <leafValues>
            4.4273719191551208e-01 -1.0235632956027985e-01</leafValues></_>
        <_>
          <internalNodes>
            0 -1 69 -3.3515451941639185e-03</internalNodes>
          <leafValues>
            -6.3630694150924683e-01 7.7691495418548584e-02</leafValues></_>
        <_>
          <internalNodes>
            0 -1 7 -5.0772950053215027e-03</internalNodes>
          <leafValues>
            2.9868701100349426e-01 -1.6033287346363068e-01</leafValues></_>
        <_>
          <internalNodes>
            0 -1 42 6.7365460097789764e-02</internalNodes>
          <leafValues>
            -7.4631318449974060e-02 5.7974368333816528e-01</leafValues></_></weakClassifiers></_>
    <!-- stage 4 -->
    <_>
      <maxWeakCount>31</maxWeakCount>
      <stageThreshold>-7.2687178850173950e-01</stageThreshold>
      <weakClassifiers>
        <_>
          <internalNodes>
            0 -1 47 1.9110982539132237e-03</internalNodes>
          <leafValues>
            1.7328727245330811e-01 6.2201452255249023e-01</leafValues></_>
        <_>
          <internalNodes>
            0 -1 276 -7.8671388328075409e-03</internalNodes>
          <leafValues>
            3.3127063512802124e-01 -1.3453552126884460e-01</leafValues></_>
        <_>
          <internalNodes>
            0 -1 141 -1.1091211810708046e-02</internalNodes>
          <leafValues>
            3.9238056540489197e-01 -1.2846481800079346e-01</leafValues></_>
        <_>
          <internalNodes>
            0 -1 75 7.7387774363160133e-03</internalNodes>
          <leafValues>
            -1.8324287235736847e-01 3.3427315950393677e-01</leafValues></_>
        <_>
          <internalNodes>
            0 -1 170 1.8432622775435448e-02</internalNodes>
          <leafValues>
            -1.3879062235355377e-01 4.4542115926742554e-01</leafValues></_>
        <_>
          <internalNodes>
            0 -1 151 -3.6655939184129238e-03</internalNodes>
          <leafValues>
            4.3477115035057068e-01 -1.7193731665611267e-01</leafValues></_>
        <_>
          <internalNodes>
            0 -1 142 -1.4317264780402184e-02</internalNodes>
          <leafValues>
            3.8628569245338440e-01 -1.1624207347631454e-01</leafValues></_>
        <_>
          <internalNodes>
            0 -1 50 -9.6225424204021692e-04</internalNodes>
          <leafValues>
            3.5776889324188232e-01 -1.5233598649501801e-01</leafValues></_>
        <_>
          <internalNodes>
            0 -1 39 -4.6916645951569080e-03</internalNodes>
          <leafValues>
            3.7674218416213989e-01 -1.3840977847576141e-01</leafValues></_>
        <_>
          <internalNodes>
            0 -1 92 -6.3199768774211407e-03</internalNodes>
          <leafValues>
            3.3041486144065857e-01 -1.4987309277057648e-01</leafValues></_>
        <_>
          <internalNodes>
            0 -1 136 1.6946364194154739e-03</internalNodes>
          <leafValues>
            -1.2141659110784531e-01 3.8774842023849487e-01</leafValues></_>
        <_>
          <internalNodes>
            0 -1 150 2.4042255245149136e-03</internalNodes>
          <leafValues>
            8.3453491330146790e-02 -5.9185004234313965e-01</leafValues></_>
        <_>
          <internalNodes>
            0 -1 271 -3.1989349517971277e-03</internalNodes>
          <leafValues>
            -7.0045375823974609e-01 6.1010900884866714e-02</leafValues></_>
        <_>
          <internalNodes>
            0 -1 232 1.7120430711656809e-03</internalNodes>
          <leafValues>
            -1.7449294030666351e-01 2.6939868927001953e-01</leafValues></_>
        <_>
          <internalNodes>
            0 -1 94 -1.8953965045511723e-03</internalNodes>
          <leafValues>
            3.0359563231468201e-01 -1.6397865116596222e-01</leafValues></_>
        <_>
          <internalNodes>
            0 -1 131 3.0193715356290340e-03</internalNodes>
          <leafValues>
            6.2852293252944946e-02 -7.4024498462677002e-01</leafValues></_>
        <_>
          <internalNodes>
            0 -1 100 3.2347571104764938e-03</internalNodes>
          <leafValues>
            -1.6045269370079041e-01 3.0825802683830261e-01</leafValues></_>
        <_>
          <internalNodes>
            0 -1 30 -1.4857704937458038e-01</internalNodes>
          <leafValues>
            5.5149441957473755e-01 -7.4694737792015076e-02</leafValues></_>
        <_>
          <internalNodes>
            0 -1 51 5.9817105531692505e-02</internalNodes>
          <leafValues>
            -1.2731532752513885e-01 4.3769910931587219e-01</leafValues></_>
        <_>
          <internalNodes>
            0 -1 166 4.3281135149300098e-03</internalNodes>
          <leafValues>
            -8.6651839315891266e-02 4.9612259864807129e-01</leafValues></_>
        <_>
          <internalNodes>
            0 -1 212 -9.9838543683290482e-03</internalNodes>
          <leafValues>
            3.3250650763511658e-01 -1.3429847359657288e-01</leafValues></_>
        <_>
          <internalNodes>
            0 -1 87 -6.0842521488666534e-03</internalNodes>
          <leafValues>
            1.7868812382221222e-01 -2.5734451413154602e-01</leafValues></_>
        <_>
          <internalNodes>
            0 -1 106 2.2243689745664597e-03</internalNodes>
          <leafValues>
            7.8671075403690338e-02 -5.5976283550262451e-01</leafValues></_>
        <_>
          <internalNodes>
            0 -1 26 8.5163820767775178e-04</internalNodes>
          <leafValues>
            -1.5625542402267456e-01 2.6910543441772461e-01</leafValues></_>
        <_>
          <internalNodes>
            0 -1 22 -6.5161013044416904e-03</internalNodes>
          <leafValues>
            3.9128971099853516e-01 -1.1356414854526520e-01</leafValues></_>
        <_>
          <internalNodes>
            0 -1 244 1.7391969449818134e-03</internalNodes>
          <leafValues>
            9.2386692762374878e-02 -5.0328379869461060e-01</leafValues></_>
        <_>
          <internalNodes>
            0 -1 59 8.4765851497650146e-03</internalNodes>
          <leafValues>
            -1.4164389669895172e-01 2.9399481415748596e-01</leafValues></_>
        <_>
          <internalNodes>
            0 -1 219 1.6482046339660883e-03</internalNodes>
          <leafValues>
            -1.3192747533321381e-01 3.0212503671646118e-01</leafValues></_>
        <_>
          <internalNodes>
            0 -1 174 -1.4962248504161835e-02</internalNodes>
          <leafValues>
            4.7499102354049683e-01 -9.1274291276931763e-02</leafValues></_>
        <_>
          <internalNodes>
            0 -1 163 -1.0174596682190895e-03</internalNodes>
          <leafValues>
            2.5583928823471069e-01 -1.8201881647109985e-01</leafValues></_>
        <_>
          <internalNodes>
            0 -1 52 1.2950338423252106e-02</internalNodes>
          <leafValues>
            -1.5757116675376892e-01 2.9340437054634094e-01</leafValues></_></weakClassifiers></_>
    <!-- stage 5 -->
    <_>
      <maxWeakCount>34</maxWeakCount>
      <stageThreshold>-7.1291726827621460e-01</stageThreshold>
      <weakClassifiers>
        <_>
          <internalNodes>
            0 -1 218 2.6227985508739948e-03</internalNodes>
          <leafValues>
            1.9579645991325378e-01 6.1210763454437256e-01</leafValues></_>
        <_>
          <internalNodes>
            0 -1 44 5.9590511955320835e-03</internalNodes>
          <leafValues>
            -1.0605622082948685e-01 3.6377951502799988e-01</leafValues></_>
        <_>
          <internalNodes>
            0 -1 280 -9.0442076325416565e-03</internalNodes>
          <leafValues>
            3.2950589060783386e-01 -1.6835847496986389e-01</leafValues></_>
        <_>
          <internalNodes>
            0 -1 282 1.2154604773968458e-03</internalNodes>
          <leafValues>
            -1.2818317115306854e-01 4.3243011832237244e-01</leafValues></_>
        <_>
          <internalNodes>
            0 -1 261 1.5693379100412130e-03</internalNodes>
          <leafValues>
            1.0839892178773880e-01 -4.5499190688133240e-01</leafValues></_>
        <_>
          <internalNodes>
            0 -1 145 2.5959298363886774e-04</internalNodes>
          <leafValues>
            -2.4842998385429382e-01 1.7190518975257874e-01</leafValues></_>
        <_>
          <internalNodes>
            0 -1 234 9.9159087985754013e-03</internalNodes>
          <leafValues>
            -1.2841635942459106e-01 3.5087645053863525e-01</leafValues></_>
        <_>
          <internalNodes>
            0 -1 229 -3.9360607042908669e-03</internalNodes>
          <leafValues>
            3.5750675201416016e-01 -1.2922424077987671e-01</leafValues></_>
        <_>
          <internalNodes>
            0 -1 112 1.4605277217924595e-02</internalNodes>
          <leafValues>
            -1.0507489740848541e-01 4.5454999804496765e-01</leafValues></_>
        <_>
          <internalNodes>
            0 -1 251 -2.2508010733872652e-03</internalNodes>
          <leafValues>
            -3.8324606418609619e-01 1.1741871386766434e-01</leafValues></_>
        <_>
          <internalNodes>
            0 -1 270 7.6232005085330456e-05</internalNodes>
          <leafValues>
            1.5762057900428772e-01 -2.7412700653076172e-01</leafValues></_>
        <_>
          <internalNodes>
            0 -1 274 -2.6172078214585781e-03</internalNodes>
          <leafValues>
            -5.3259778022766113e-01 9.1925755143165588e-02</leafValues></_>
        <_>
          <internalNodes>
            0 -1 201 -9.3835336156189442e-04</internalNodes>
          <leafValues>
            3.3733901381492615e-01 -1.4964744448661804e-01</leafValues></_>
        <_>
          <internalNodes>
            0 -1 11 -2.7550845406949520e-03</internalNodes>
          <leafValues>
            2.5639221072196960e-01 -1.5317314863204956e-01</leafValues></_>
        <_>
          <internalNodes>
            0 -1 8 7.5072767212986946e-03</internalNodes>
          <leafValues>
            -1.1943445354700089e-01 3.8869646191596985e-01</leafValues></_>
        <_>
          <internalNodes>
            0 -1 145 1.6680923290550709e-03</internalNodes>
          <leafValues>
            7.8219167888164520e-02 -5.5504506826400757e-01</leafValues></_>
        <_>
          <internalNodes>
            0 -1 135 3.8568463060073555e-04</internalNodes>
          <leafValues>
            -1.8216452002525330e-01 2.4235242605209351e-01</leafValues></_>
        <_>
          <internalNodes>
            0 -1 78 2.2175437770783901e-03</internalNodes>
          <leafValues>
            7.5388275086879730e-02 -5.2308452129364014e-01</leafValues></_>
        <_>
          <internalNodes>
            0 -1 130 3.3601158065721393e-04</internalNodes>
          <leafValues>
            -1.8879264593124390e-01 2.2751154005527496e-01</leafValues></_>
        <_>
          <internalNodes>
            0 -1 149 1.7733355052769184e-03</internalNodes>
          <leafValues>
            8.5799962282180786e-02 -5.7363307476043701e-01</leafValues></_>
        <_>
          <internalNodes>
            0 -1 162 -4.8456252552568913e-03</internalNodes>
          <leafValues>
            -5.5746901035308838e-01 6.3110411167144775e-02</leafValues></_>
        <_>
          <internalNodes>
            0 -1 178 4.4959437218494713e-04</internalNodes>
          <leafValues>
            -1.8440593779087067e-01 2.2857570648193359e-01</leafValues></_>
        <_>
          <internalNodes>
            0 -1 96 5.9615620411932468e-03</internalNodes>
          <leafValues>
            -1.2818241119384766e-01 3.4056863188743591e-01</leafValues></_>
        <_>
          <internalNodes>
            0 -1 35 -2.2895350120961666e-03</internalNodes>
          <leafValues>
            -5.0540459156036377e-01 7.9771600663661957e-02</leafValues></_>
        <_>
          <internalNodes>
            0 -1 224 1.7515972256660461e-02</internalNodes>
          <leafValues>
            6.5558120608329773e-02 -5.6836271286010742e-01</leafValues></_>
        <_>
          <internalNodes>
            0 -1 169 8.5580088198184967e-03</internalNodes>
          <leafValues>
            -1.0609459877014160e-01 3.7721130251884460e-01</leafValues></_>
        <_>
          <internalNodes>
            0 -1 88 -4.3912988156080246e-02</internalNodes>
          <leafValues>
            5.2142614126205444e-01 -6.9247908890247345e-02</leafValues></_>
        <_>
          <internalNodes>
            0 -1 97 3.5236254334449768e-03</internalNodes>
          <leafValues>
            8.3551429212093353e-02 -4.4728100299835205e-01</leafValues></_>
        <_>
          <internalNodes>
            0 -1 68 5.3217569366097450e-03</internalNodes>
          <leafValues>
            -1.2862245738506317e-01 2.8241872787475586e-01</leafValues></_>
        <_>
          <internalNodes>
            0 -1 187 -7.1680559776723385e-03</internalNodes>
          <leafValues>
            3.6241602897644043e-01 -1.0047391057014465e-01</leafValues></_>
        <_>
          <internalNodes>
            0 -1 249 4.8913788050413132e-03</internalNodes>
          <leafValues>
            -1.3687622547149658e-01 2.8438472747802734e-01</leafValues></_>
        <_>
          <internalNodes>
            0 -1 37 -5.7414509356021881e-03</internalNodes>
          <leafValues>
            4.3890008330345154e-01 -8.7585426867008209e-02</leafValues></_>
        <_>
          <internalNodes>
            0 -1 283 1.5481827722396702e-04</internalNodes>
          <leafValues>
            -2.0519003272056580e-01 1.9181898236274719e-01</leafValues></_>
        <_>
          <internalNodes>
            0 -1 38 1.2065473943948746e-02</internalNodes>
          <leafValues>
            -8.8946662843227386e-02 4.6779760718345642e-01</leafValues></_></weakClassifiers></_>
    <!-- stage 6 -->
    <_>
      <maxWeakCount>38</maxWeakCount>
      <stageThreshold>-7.4179601669311523e-01</stageThreshold>
      <weakClassifiers>
        <_>
          <internalNodes>
            0 -1 281 3.0032927170395851e-03</internalNodes>
          <leafValues>
            3.7763878703117371e-01 -4.6478873491287231e-01</leafValues></_>
        <_>
          <internalNodes>
            0 -1 188 6.1427773907780647e-03</internalNodes>
          <leafValues>
            -8.6073033511638641e-02 4.2482718825340271e-01</leafValues></_>
        <_>
          <internalNodes>
            0 -1 140 1.3138947542756796e-03</internalNodes>
          <leafValues>
            -2.0356296002864838e-01 1.9885818660259247e-01</leafValues></_>
        <_>
          <internalNodes>
            0 -1 117 9.7114577889442444e-02</internalNodes>
          <leafValues>
            -6.6256992518901825e-02 6.0740852355957031e-01</leafValues></_>
        <_>
          <internalNodes>
            0 -1 152 -3.6683588405139744e-04</internalNodes>
          <leafValues>
            2.2036586701869965e-01 -2.1165041625499725e-01</leafValues></_>
        <_>
          <internalNodes>
            0 -1 238 1.8713949248194695e-03</internalNodes>
          <leafValues>
            -1.5396645665168762e-01 2.8916305303573608e-01</leafValues></_>
        <_>
          <internalNodes>
            0 -1 106 -2.6133996434509754e-03</internalNodes>
          <leafValues>
            -5.7732111215591431e-01 8.6234942078590393e-02</leafValues></_>
        <_>
          <internalNodes>
            0 -1 183 -9.7675516735762358e-04</internalNodes>
          <leafValues>
            3.1065869331359863e-01 -1.4854222536087036e-01</leafValues></_>
        <_>
          <internalNodes>
            0 -1 235 -1.3565540313720703e-02</internalNodes>
          <leafValues>
            5.2466303110122681e-01 -8.0897197127342224e-02</leafValues></_>
        <_>
          <internalNodes>
            0 -1 99 -3.0209369957447052e-02</internalNodes>
          <leafValues>
            4.0735706686973572e-01 -1.1011605709791183e-01</leafValues></_>
        <_>
          <internalNodes>
            0 -1 90 6.5862112678587437e-03</internalNodes>
          <leafValues>
            -1.0588282346725464e-01 3.3871841430664062e-01</leafValues></_>
        <_>
          <internalNodes>
            0 -1 49 2.2424005437642336e-03</internalNodes>
          <leafValues>
            -1.2633422017097473e-01 2.8290209174156189e-01</leafValues></_>
        <_>
          <internalNodes>
            0 -1 44 -5.0984672270715237e-03</internalNodes>
          <leafValues>
            3.6388891935348511e-01 -1.1435463279485703e-01</leafValues></_>
        <_>
          <internalNodes>
            0 -1 288 3.7216036580502987e-03</internalNodes>
          <leafValues>
            6.6692978143692017e-02 -5.5539298057556152e-01</leafValues></_>
        <_>
          <internalNodes>
            0 -1 0 1.0390644893050194e-02</internalNodes>
          <leafValues>
            -1.4261706173419952e-01 2.6604545116424561e-01</leafValues></_>
        <_>
          <internalNodes>
            0 -1 62 3.7130132317543030e-02</internalNodes>
          <leafValues>
            -1.1262411624193192e-01 3.3189070224761963e-01</leafValues></_>
        <_>
          <internalNodes>
            0 -1 191 -1.0495847091078758e-02</internalNodes>
          <leafValues>
            3.8292378187179565e-01 -9.8827674984931946e-02</leafValues></_>
        <_>
          <internalNodes>
            0 -1 193 -8.3391806110739708e-03</internalNodes>
          <leafValues>
            -5.6738531589508057e-01 7.0605821907520294e-02</leafValues></_>
        <_>
          <internalNodes>
            0 -1 176 1.1814132449217141e-04</internalNodes>
          <leafValues>
            -1.9891448318958282e-01 1.7810985445976257e-01</leafValues></_>
        <_>
          <internalNodes>
            0 -1 135 3.7118806503713131e-03</internalNodes>
          <leafValues>
            4.4512543827295303e-02 -8.2507985830307007e-01</leafValues></_>
        <_>
          <internalNodes>
            0 -1 33 9.6817784011363983e-02</internalNodes>
          <leafValues>
            -9.9121131002902985e-02 3.7888166308403015e-01</leafValues></_>
        <_>
          <internalNodes>
            0 -1 3 9.5767993479967117e-03</internalNodes>
          <leafValues>
            -1.1871369183063507e-01 3.1271260976791382e-01</leafValues></_>
        <_>
          <internalNodes>
            0 -1 16 -4.0634215110912919e-04</internalNodes>
          <leafValues>
            2.2384896874427795e-01 -1.6841214895248413e-01</leafValues></_>
        <_>
          <internalNodes>
            0 -1 125 5.1394334150245413e-05</internalNodes>
          <leafValues>
            -2.0086976885795593e-01 1.7369741201400757e-01</leafValues></_>
        <_>
          <internalNodes>
            0 -1 125 1.5388347674161196e-03</internalNodes>
          <leafValues>
            8.0237351357936859e-02 -5.7215070724487305e-01</leafValues></_>
        <_>
          <internalNodes>
            0 -1 54 -1.0067769326269627e-02</internalNodes>
          <leafValues>
            3.5239458084106445e-01 -1.0033563524484634e-01</leafValues></_>
        <_>
          <internalNodes>
            0 -1 83 -1.9701328128576279e-03</internalNodes>
          <leafValues>
            3.0070391297340393e-01 -1.2169448286294937e-01</leafValues></_>
        <_>
          <internalNodes>
            0 -1 122 -5.0095096230506897e-02</internalNodes>
          <leafValues>
            4.2982414364814758e-01 -8.4330834448337555e-02</leafValues></_>
        <_>
          <internalNodes>
            0 -1 171 -6.2483880901709199e-04</internalNodes>
          <leafValues>
            2.8167626261711121e-01 -1.3158251345157623e-01</leafValues></_>
        <_>
          <internalNodes>
            0 -1 40 -3.5297111608088017e-03</internalNodes>
          <leafValues>
            3.5205978155136108e-01 -9.7541943192481995e-02</leafValues></_>
        <_>
          <internalNodes>
            0 -1 258 7.0638145552948117e-04</internalNodes>
          <leafValues>
            9.7497016191482544e-02 -3.6973550915718079e-01</leafValues></_>
        <_>
          <internalNodes>
            0 -1 119 -1.8942914903163910e-02</internalNodes>
          <leafValues>
            -6.6974687576293945e-01 5.2036810666322708e-02</leafValues></_>
        <_>
          <internalNodes>
            0 -1 277 -1.4332364662550390e-04</internalNodes>
          <leafValues>
            1.5640813112258911e-01 -2.3219804465770721e-01</leafValues></_>
        <_>
          <internalNodes>
            0 -1 251 3.0456867534667253e-03</internalNodes>
          <leafValues>
            7.6733782887458801e-02 -5.2120327949523926e-01</leafValues></_>
        <_>
          <internalNodes>
            0 -1 250 6.0384133830666542e-03</internalNodes>
          <leafValues>
            -8.7803967297077179e-02 4.7960618138313293e-01</leafValues></_>
        <_>
          <internalNodes>
            0 -1 111 1.5178717672824860e-02</internalNodes>
          <leafValues>
            -9.9259659647941589e-02 3.6945787072181702e-01</leafValues></_>
        <_>
          <internalNodes>
            0 -1 220 -8.3662662655115128e-03</internalNodes>
          <leafValues>
            -4.7994193434715271e-01 8.7027966976165771e-02</leafValues></_>
        <_>
          <internalNodes>
            0 -1 63 -2.6173726655542850e-03</internalNodes>
          <leafValues>
            -4.0756508708000183e-01 9.0153038501739502e-02</leafValues></_></weakClassifiers></_>
    <!-- stage 7 -->
    <_>
      <maxWeakCount>40</maxWeakCount>
      <stageThreshold>-7.6508355140686035e-01</stageThreshold>
      <weakClassifiers>
        <_>
          <internalNodes>
            0 -1 202 -1.6104090958833694e-02</internalNodes>
          <leafValues>
            -5.9322035312652588e-01 3.7567776441574097e-01</leafValues></_>
        <_>
          <internalNodes>
            0 -1 243 2.7569220401346684e-04</internalNodes>
          <leafValues>
            -1.8403877317905426e-01 2.4944290518760681e-01</leafValues></_>
        <_>
          <internalNodes>
            0 -1 191 2.4095699191093445e-02</internalNodes>
          <leafValues>
            -9.3800701200962067e-02 6.1229300498962402e-01</leafValues></_>
        <_>
          <internalNodes>
            0 -1 182 -8.6992830038070679e-03</internalNodes>
          <leafValues>
            3.3554986119270325e-01 -1.2656533718109131e-01</leafValues></_>
        <_>
          <internalNodes>
            0 -1 58 -4.5137815177440643e-02</internalNodes>
          <leafValues>
            5.0487959384918213e-01 -8.0208241939544678e-02</leafValues></_>
        <_>
          <internalNodes>
            0 -1 70 9.5898192375898361e-03</internalNodes>
          <leafValues>
            -1.5659429132938385e-01 2.7159208059310913e-01</leafValues></_>
        <_>
          <internalNodes>
            0 -1 20 -2.9884397517889738e-03</internalNodes>
          <leafValues>
            2.3608607053756714e-01 -1.6413566470146179e-01</leafValues></_>
        <_>
          <internalNodes>
            0 -1 32 1.7233227845281363e-03</internalNodes>
          <leafValues>
            6.3403680920600891e-02 -4.6528267860412598e-01</leafValues></_>
        <_>
          <internalNodes>
            0 -1 269 -5.3734835237264633e-03</internalNodes>
          <leafValues>
            2.0396621525287628e-01 -1.8773618340492249e-01</leafValues></_>
        <_>
          <internalNodes>
            0 -1 158 -2.3337518796324730e-03</internalNodes>
          <leafValues>
            -4.8154115676879883e-01 7.3151402175426483e-02</leafValues></_>
        <_>
          <internalNodes>
            0 -1 166 3.1170034781098366e-03</internalNodes>
          <leafValues>
            -1.1184003949165344e-01 3.3609011769294739e-01</leafValues></_>
        <_>
          <internalNodes>
            0 -1 205 2.7057945728302002e-02</internalNodes>
          <leafValues>
            1.0186699032783508e-01 -4.0955212712287903e-01</leafValues></_>
        <_>
          <internalNodes>
            0 -1 253 -4.3138535693287849e-03</internalNodes>
          <leafValues>
            -4.4994711875915527e-01 6.7802406847476959e-02</leafValues></_>
        <_>
          <internalNodes>
            0 -1 287 -8.6869637016206980e-05</internalNodes>
          <leafValues>
            -2.2115007042884827e-01 1.5823666751384735e-01</leafValues></_>
        <_>
          <internalNodes>
            0 -1 77 1.6451746923848987e-03</internalNodes>
          <leafValues>
            -1.3549956679344177e-01 2.6346105337142944e-01</leafValues></_>
        <_>
          <internalNodes>
            0 -1 103 4.3615931645035744e-03</internalNodes>
          <leafValues>
            -1.0794130712747574e-01 3.7330794334411621e-01</leafValues></_>
        <_>
          <internalNodes>
            0 -1 64 5.7141110301017761e-03</internalNodes>
          <leafValues>
            8.2064636051654816e-02 -4.8144775629043579e-01</leafValues></_>
        <_>
          <internalNodes>
            0 -1 286 -1.0241267737001181e-03</internalNodes>
          <leafValues>
            -3.6608538031578064e-01 9.5812015235424042e-02</leafValues></_>
        <_>
          <internalNodes>
            0 -1 41 -1.5621135011315346e-02</internalNodes>
          <leafValues>
            4.1211116313934326e-01 -9.2934980988502502e-02</leafValues></_>
        <_>
          <internalNodes>
            0 -1 161 5.2384389564394951e-03</internalNodes>
          <leafValues>
            6.6133573651313782e-02 -6.4212977886199951e-01</leafValues></_>
        <_>
          <internalNodes>
            0 -1 76 1.6519721248187125e-04</internalNodes>
          <leafValues>
            1.2752427160739899e-01 -2.7117094397544861e-01</leafValues></_>
        <_>
          <internalNodes>
            0 -1 199 -1.0329218581318855e-02</internalNodes>
          <leafValues>
            4.3829616904258728e-01 -8.4868572652339935e-02</leafValues></_>
        <_>
          <internalNodes>
            0 -1 217 1.8234446179121733e-03</internalNodes>
          <leafValues>
            -1.5614220499992371e-01 3.0071738362312317e-01</leafValues></_>
        <_>
          <internalNodes>
            0 -1 284 -2.3442374076694250e-03</internalNodes>
          <leafValues>
            -5.0483667850494385e-01 7.0355378091335297e-02</leafValues></_>
        <_>
          <internalNodes>
            0 -1 262 -3.7388619966804981e-03</internalNodes>
          <leafValues>
            3.1774458289146423e-01 -1.2988331913948059e-01</leafValues></_>
        <_>
          <internalNodes>
            0 -1 134 -5.1757425069808960e-02</internalNodes>
          <leafValues>
            -7.1189767122268677e-01 5.8645375072956085e-02</leafValues></_>
        <_>
          <internalNodes>
            0 -1 209 -9.3542840331792831e-03</internalNodes>
          <leafValues>
            -5.2388054132461548e-01 6.0069903731346130e-02</leafValues></_>
        <_>
          <internalNodes>
            0 -1 228 1.4385946560651064e-03</internalNodes>
          <leafValues>
            -1.7820665240287781e-01 2.2170002758502960e-01</leafValues></_>
        <_>
          <internalNodes>
            0 -1 213 1.0327742202207446e-03</internalNodes>
          <leafValues>
            -1.1880200356245041e-01 3.2900229096412659e-01</leafValues></_>
        <_>
          <internalNodes>
            0 -1 167 2.3304175585508347e-02</internalNodes>
          <leafValues>
            -1.0182123631238937e-01 3.8063651323318481e-01</leafValues></_>
        <_>
          <internalNodes>
            0 -1 110 4.5360652729868889e-03</internalNodes>
          <leafValues>
            5.0915651023387909e-02 -7.9231077432632446e-01</leafValues></_>
        <_>
          <internalNodes>
            0 -1 186 -9.3178767710924149e-03</internalNodes>
          <leafValues>
            2.2447179257869720e-01 -1.7062129080295563e-01</leafValues></_>
        <_>
          <internalNodes>
            0 -1 109 1.2973553966730833e-03</internalNodes>
          <leafValues>
            -1.4212328195571899e-01 2.5440701842308044e-01</leafValues></_>
        <_>
          <internalNodes>
            0 -1 159 8.0523062497377396e-03</internalNodes>
          <leafValues>
            -9.3185409903526306e-02 4.0696090459823608e-01</leafValues></_>
        <_>
          <internalNodes>
            0 -1 165 1.2246805708855391e-03</internalNodes>
          <leafValues>
            -1.0346505045890808e-01 3.5675975680351257e-01</leafValues></_>
        <_>
          <internalNodes>
            0 -1 31 -7.6192550361156464e-02</internalNodes>
          <leafValues>
            5.0407236814498901e-01 -7.1539536118507385e-02</leafValues></_>
        <_>
          <internalNodes>
            0 -1 241 2.8852978721261024e-03</internalNodes>
          <leafValues>
            6.5901085734367371e-02 -5.7765501737594604e-01</leafValues></_>
        <_>
          <internalNodes>
            0 -1 222 2.2674305364489555e-02</internalNodes>
          <leafValues>
            4.6064008027315140e-02 -6.7337548732757568e-01</leafValues></_>
        <_>
          <internalNodes>
            0 -1 180 -6.6855270415544510e-04</internalNodes>
          <leafValues>
            2.1934354305267334e-01 -1.6239655017852783e-01</leafValues></_>
        <_>
          <internalNodes>
            0 -1 181 6.6398461349308491e-03</internalNodes>
          <leafValues>
            6.6710151731967926e-02 -5.4895812273025513e-01</leafValues></_></weakClassifiers></_>
    <!-- stage 8 -->
    <_>
      <maxWeakCount>44</maxWeakCount>
      <stageThreshold>-7.1204370260238647e-01</stageThreshold>
      <weakClassifiers>
        <_>
          <internalNodes>
            0 -1 82 -2.8461641632020473e-03</internalNodes>
          <leafValues>
            -2.2007721662521362e-01 3.9205244183540344e-01</leafValues></_>
        <_>
          <internalNodes>
            0 -1 9 1.0307869873940945e-02</internalNodes>
          <leafValues>
            -1.0200833529233932e-01 3.5893225669860840e-01</leafValues></_>
        <_>
          <internalNodes>
            0 -1 57 9.9649431649595499e-04</internalNodes>
          <leafValues>
            -1.3050505518913269e-01 2.8063374757766724e-01</leafValues></_>
        <_>
          <internalNodes>
            0 -1 15 -8.6058012675493956e-04</internalNodes>
          <leafValues>
            2.0654512941837311e-01 -2.1766836941242218e-01</leafValues></_>
        <_>
          <internalNodes>
            0 -1 185 -4.0855910629034042e-03</internalNodes>
          <leafValues>
            2.5176888704299927e-01 -1.5258978307247162e-01</leafValues></_>
        <_>
          <internalNodes>
            0 -1 226 1.2175567448139191e-02</internalNodes>
          <leafValues>
            -8.3579123020172119e-02 5.1341992616653442e-01</leafValues></_>
        <_>
          <internalNodes>
            0 -1 89 -2.9639936983585358e-02</internalNodes>
          <leafValues>
            3.0045837163925171e-01 -1.6291901469230652e-01</leafValues></_>
        <_>
          <internalNodes>
            0 -1 223 2.4583737831562757e-04</internalNodes>
          <leafValues>
            -2.0384201407432556e-01 1.9503992795944214e-01</leafValues></_>
        <_>
          <internalNodes>
            0 -1 127 3.4253749996423721e-02</internalNodes>
          <leafValues>
            -9.4061255455017090e-02 4.2425355315208435e-01</leafValues></_>
        <_>
          <internalNodes>
            0 -1 43 3.7665409035980701e-03</internalNodes>
          <leafValues>
            6.3503816723823547e-02 -5.9728634357452393e-01</leafValues></_>
        <_>
          <internalNodes>
            0 -1 12 -6.6465833224356174e-03</internalNodes>
          <leafValues>
            3.5361930727958679e-01 -1.1494069546461105e-01</leafValues></_>
        <_>
          <internalNodes>
            0 -1 21 -2.2895042784512043e-03</internalNodes>
          <leafValues>
            -3.7522336840629578e-01 9.8063498735427856e-02</leafValues></_>
        <_>
          <internalNodes>
            0 -1 53 -1.1689502280205488e-03</internalNodes>
          <leafValues>
            3.3745396137237549e-01 -1.0528368502855301e-01</leafValues></_>
        <_>
          <internalNodes>
            0 -1 264 -5.9246253222227097e-03</internalNodes>
          <leafValues>
            2.7883917093276978e-01 -1.3032887876033783e-01</leafValues></_>
        <_>
          <internalNodes>
            0 -1 286 2.2104689851403236e-03</internalNodes>
          <leafValues>
            8.8280797004699707e-02 -4.7582435607910156e-01</leafValues></_>
        <_>
          <internalNodes>
            0 -1 5 -2.2002484649419785e-02</internalNodes>
          <leafValues>
            3.5912612080574036e-01 -1.0963906347751617e-01</leafValues></_>
        <_>
          <internalNodes>
            0 -1 285 -2.2366776829585433e-04</internalNodes>
          <leafValues>
            -2.6809588074684143e-01 1.3593643903732300e-01</leafValues></_>
        <_>
          <internalNodes>
            0 -1 53 6.7277683410793543e-04</internalNodes>
          <leafValues>
            -1.3627386093139648e-01 2.6652100682258606e-01</leafValues></_>
        <_>
          <internalNodes>
            0 -1 173 2.3765377700328827e-03</internalNodes>
          <leafValues>
            6.7533195018768311e-02 -5.8334565162658691e-01</leafValues></_>
        <_>
          <internalNodes>
            0 -1 84 -2.7665859088301659e-03</internalNodes>
          <leafValues>
            3.3545851707458496e-01 -1.2173528969287872e-01</leafValues></_>
        <_>
          <internalNodes>
            0 -1 74 -1.0611398145556450e-02</internalNodes>
          <leafValues>
            2.8462570905685425e-01 -1.1536838859319687e-01</leafValues></_>
        <_>
          <internalNodes>
            0 -1 67 1.7617516219615936e-02</internalNodes>
          <leafValues>
            -1.3737750053405762e-01 2.4363239109516144e-01</leafValues></_>
        <_>
          <internalNodes>
            0 -1 113 -3.1050676479935646e-03</internalNodes>
          <leafValues>
            2.8532987833023071e-01 -1.2316804379224777e-01</leafValues></_>
        <_>
          <internalNodes>
            0 -1 156 1.7352903960272670e-03</internalNodes>
          <leafValues>
            -1.1788935959339142e-01 2.8533148765563965e-01</leafValues></_>
        <_>
          <internalNodes>
            0 -1 265 1.5440974384546280e-03</internalNodes>
          <leafValues>
            8.1131793558597565e-02 -5.0821667909622192e-01</leafValues></_>
        <_>
          <internalNodes>
            0 -1 55 5.8269212022423744e-03</internalNodes>
          <leafValues>
            -1.3398274779319763e-01 2.7912762761116028e-01</leafValues></_>
        <_>
          <internalNodes>
            0 -1 102 -3.9045843295753002e-03</internalNodes>
          <leafValues>
            4.1545686125755310e-01 -8.5198104381561279e-02</leafValues></_>
        <_>
          <internalNodes>
            0 -1 210 2.9109250754117966e-03</internalNodes>
          <leafValues>
            -1.0286244004964828e-01 3.5142052173614502e-01</leafValues></_>
        <_>
          <internalNodes>
            0 -1 210 -1.4641876332461834e-03</internalNodes>
          <leafValues>
            2.5781533122062683e-01 -1.6882774233818054e-01</leafValues></_>
        <_>
          <internalNodes>
            0 -1 146 1.8103118054568768e-03</internalNodes>
          <leafValues>
            8.3932563662528992e-02 -4.5872348546981812e-01</leafValues></_>
        <_>
          <internalNodes>
            0 -1 36 -5.2138287574052811e-03</internalNodes>
          <leafValues>
            3.8417610526084900e-01 -8.9633956551551819e-02</leafValues></_>
        <_>
          <internalNodes>
            0 -1 121 -2.4679787456989288e-03</internalNodes>
          <leafValues>
            2.6355457305908203e-01 -1.3292324542999268e-01</leafValues></_>
        <_>
          <internalNodes>
            0 -1 120 1.9985610619187355e-02</internalNodes>
          <leafValues>
            -2.1702800691127777e-01 1.6240088641643524e-01</leafValues></_>
        <_>
          <internalNodes>
            0 -1 139 -3.3660293556749821e-03</internalNodes>
          <leafValues>
            -4.2582154273986816e-01 8.5506021976470947e-02</leafValues></_>
        <_>
          <internalNodes>
            0 -1 289 -6.5524582169018686e-05</internalNodes>
          <leafValues>
            -1.9883160293102264e-01 1.6537573933601379e-01</leafValues></_>
        <_>
          <internalNodes>
            0 -1 216 -1.4585537835955620e-02</internalNodes>
          <leafValues>
            3.9380440115928650e-01 -9.5143742859363556e-02</leafValues></_>
        <_>
          <internalNodes>
            0 -1 172 6.0598168522119522e-02</internalNodes>
          <leafValues>
            7.0854522287845612e-02 -5.8976364135742188e-01</leafValues></_>
        <_>
          <internalNodes>
            0 -1 46 5.4022599942982197e-04</internalNodes>
          <leafValues>
            -1.6387119889259338e-01 2.1648199856281281e-01</leafValues></_>
        <_>
          <internalNodes>
            0 -1 101 -1.8329967278987169e-03</internalNodes>
          <leafValues>
            2.4419291317462921e-01 -1.4279572665691376e-01</leafValues></_>
        <_>
          <internalNodes>
            0 -1 256 3.8236094405874610e-04</internalNodes>
          <leafValues>
            1.1276560276746750e-01 -3.5614719986915588e-01</leafValues></_>
        <_>
          <internalNodes>
            0 -1 237 2.0148893818259239e-03</internalNodes>
          <leafValues>
            -1.4426644146442413e-01 2.4236196279525757e-01</leafValues></_>
        <_>
          <internalNodes>
            0 -1 163 -7.7976402826607227e-04</internalNodes>
          <leafValues>
            2.0980519056320190e-01 -1.7958033084869385e-01</leafValues></_>
        <_>
          <internalNodes>
            0 -1 236 4.8271012492477894e-03</internalNodes>
          <leafValues>
            -1.2743549048900604e-01 2.6723629236221313e-01</leafValues></_>
        <_>
          <internalNodes>
            0 -1 271 2.5416323915123940e-03</internalNodes>
          <leafValues>
            7.0734791457653046e-02 -5.6169176101684570e-01</leafValues></_></weakClassifiers></_>
    <!-- stage 9 -->
    <_>
      <maxWeakCount>44</maxWeakCount>
      <stageThreshold>-6.9341528415679932e-01</stageThreshold>
      <weakClassifiers>
        <_>
          <internalNodes>
            0 -1 138 2.5779400020837784e-03</internalNodes>
          <leafValues>
            3.9336881041526794e-01 -2.3735408484935760e-01</leafValues></_>
        <_>
          <internalNodes>
            0 -1 248 5.4488284513354301e-03</internalNodes>
          <leafValues>
            -1.1163321882486343e-01 3.4600058197975159e-01</leafValues></_>
        <_>
          <internalNodes>
            0 -1 34 -2.7406844310462475e-03</internalNodes>
          <leafValues>
            -5.1957416534423828e-01 7.3615156114101410e-02</leafValues></_>
        <_>
          <internalNodes>
            0 -1 1 8.1427749246358871e-03</internalNodes>
          <leafValues>
            -1.0838601738214493e-01 3.5799404978752136e-01</leafValues></_>
        <_>
          <internalNodes>
            0 -1 91 -2.0515333861112595e-02</internalNodes>
          <leafValues>
            4.6698117256164551e-01 -1.0310930758714676e-01</leafValues></_>
        <_>
          <internalNodes>
            0 -1 153 -1.8329703016206622e-04</internalNodes>
          <leafValues>
            2.0172362029552460e-01 -2.0175485312938690e-01</leafValues></_>
        <_>
          <internalNodes>
            0 -1 157 7.3455041274428368e-03</internalNodes>
          <leafValues>
            -1.0545216500759125e-01 3.3192923665046692e-01</leafValues></_>
        <_>
          <internalNodes>
            0 -1 137 5.1192077808082104e-04</internalNodes>
          <leafValues>
            -1.6982252895832062e-01 2.0088090002536774e-01</leafValues></_>
        <_>
          <internalNodes>
            0 -1 189 4.8376843333244324e-03</internalNodes>
          <leafValues>
            -1.0569258779287338e-01 2.9043641686439514e-01</leafValues></_>
        <_>
          <internalNodes>
            0 -1 175 -3.0241899657994509e-03</internalNodes>
          <leafValues>
            -3.9489972591400146e-01 1.0513427108526230e-01</leafValues></_>
        <_>
          <internalNodes>
            0 -1 182 1.0379089042544365e-02</internalNodes>
          <leafValues>
            -7.9476118087768555e-02 4.4860476255416870e-01</leafValues></_>
        <_>
          <internalNodes>
            0 -1 246 -2.9403534717857838e-03</internalNodes>
          <leafValues>
            -5.0206935405731201e-01 8.0977119505405426e-02</leafValues></_>
        <_>
          <internalNodes>
            0 -1 10 -7.5863078236579895e-03</internalNodes>
          <leafValues>
            2.6742574572563171e-01 -1.1930301040410995e-01</leafValues></_>
        <_>
          <internalNodes>
            0 -1 17 5.5266027338802814e-03</internalNodes>
          <leafValues>
            -1.1309614777565002e-01 2.7827978134155273e-01</leafValues></_>
        <_>
          <internalNodes>
            0 -1 93 -3.5722728352993727e-03</internalNodes>
          <leafValues>
            -4.6527099609375000e-01 7.8860059380531311e-02</leafValues></_>
        <_>
          <internalNodes>
            0 -1 118 -2.1731057204306126e-03</internalNodes>
          <leafValues>
            2.5701051950454712e-01 -1.3027702271938324e-01</leafValues></_>
        <_>
          <internalNodes>
            0 -1 225 -3.1348341144621372e-03</internalNodes>
          <leafValues>
            3.1771659851074219e-01 -1.0318015515804291e-01</leafValues></_>
        <_>
          <internalNodes>
            0 -1 227 5.1861832616850734e-04</internalNodes>
          <leafValues>
            -1.6449129581451416e-01 2.6975378394126892e-01</leafValues></_>
        <_>
          <internalNodes>
            0 -1 266 -2.9124834691174328e-04</internalNodes>
          <leafValues>
            -2.6824823021888733e-01 1.3170170783996582e-01</leafValues></_>
        <_>
          <internalNodes>
            0 -1 214 -5.9567103162407875e-03</internalNodes>
          <leafValues>
            -4.8212006688117981e-01 6.3657931983470917e-02</leafValues></_>
        <_>
          <internalNodes>
            0 -1 71 9.6398741006851196e-03</internalNodes>
          <leafValues>
            -7.6566740870475769e-02 4.1646581888198853e-01</leafValues></_>
        <_>
          <internalNodes>
            0 -1 190 -7.2345864027738571e-03</internalNodes>
          <leafValues>
            -4.2352265119552612e-01 7.3606424033641815e-02</leafValues></_>
        <_>
          <internalNodes>
            0 -1 240 -4.4589949538931251e-04</internalNodes>
          <leafValues>
            -2.3650546371936798e-01 1.2165117263793945e-01</leafValues></_>
        <_>
          <internalNodes>
            0 -1 116 4.9773581326007843e-02</internalNodes>
          <leafValues>
            4.9111533910036087e-02 -5.8478993177413940e-01</leafValues></_>
        <_>
          <internalNodes>
            0 -1 200 -1.1993835680186749e-02</internalNodes>
          <leafValues>
            4.0022662281990051e-01 -7.3219865560531616e-02</leafValues></_>
        <_>
          <internalNodes>
            0 -1 260 -8.4203406004235148e-04</internalNodes>
          <leafValues>
            2.3348714411258698e-01 -1.3811865448951721e-01</leafValues></_>
        <_>
          <internalNodes>
            0 -1 263 3.0691842548549175e-03</internalNodes>
          <leafValues>
            -1.3961145281791687e-01 2.8125685453414917e-01</leafValues></_>
        <_>
          <internalNodes>
            0 -1 108 -1.8775489181280136e-02</internalNodes>
          <leafValues>
            2.8273728489875793e-01 -1.0762475430965424e-01</leafValues></_>
        <_>
          <internalNodes>
            0 -1 144 8.3865225315093994e-04</internalNodes>
          <leafValues>
            -1.5061835944652557e-01 2.0045882463455200e-01</leafValues></_>
        <_>
          <internalNodes>
            0 -1 126 2.4583828635513783e-03</internalNodes>
          <leafValues>
            6.6181406378746033e-02 -4.6198377013206482e-01</leafValues></_>
        <_>
          <internalNodes>
            0 -1 115 -3.9953878149390221e-03</internalNodes>
          <leafValues>
            3.0075797438621521e-01 -1.0612080991268158e-01</leafValues></_>
        <_>
          <internalNodes>
            0 -1 255 -3.6487043835222721e-03</internalNodes>
          <leafValues>
            -5.1445090770721436e-01 6.1236046254634857e-02</leafValues></_>
        <_>
          <internalNodes>
            0 -1 252 2.5025289505720139e-03</internalNodes>
          <leafValues>
            5.5802017450332642e-02 -5.3651618957519531e-01</leafValues></_>
        <_>
          <internalNodes>
            0 -1 221 -2.2023133351467550e-04</internalNodes>
          <leafValues>
            -2.5890305638313293e-01 1.0498175024986267e-01</leafValues></_>
        <_>
          <internalNodes>
            0 -1 197 -1.0301750153303146e-03</internalNodes>
          <leafValues>
            2.7513509988784790e-01 -1.1148185282945633e-01</leafValues></_>
        <_>
          <internalNodes>
            0 -1 65 -7.6153688132762909e-04</internalNodes>
          <leafValues>
            2.1154534816741943e-01 -1.4319838583469391e-01</leafValues></_>
        <_>
          <internalNodes>
            0 -1 57 -1.5272081363946199e-03</internalNodes>
          <leafValues>
            3.8081273436546326e-01 -1.0799501091241837e-01</leafValues></_>
        <_>
          <internalNodes>
            0 -1 56 -4.8212893307209015e-03</internalNodes>
          <leafValues>
            -6.2210732698440552e-01 5.8514267206192017e-02</leafValues></_>
        <_>
          <internalNodes>
            0 -1 208 -2.0918482914566994e-03</internalNodes>
          <leafValues>
            2.3593845963478088e-01 -1.2951296567916870e-01</leafValues></_>
        <_>
          <internalNodes>
            0 -1 196 -1.3287321198731661e-03</internalNodes>
          <leafValues>
            2.4010933935642242e-01 -1.1819820106029510e-01</leafValues></_>
        <_>
          <internalNodes>
            0 -1 203 -1.2216063216328621e-02</internalNodes>
          <leafValues>
            -5.0986242294311523e-01 6.4068660140037537e-02</leafValues></_>
        <_>
          <internalNodes>
            0 -1 61 -4.4186506420373917e-03</internalNodes>
          <leafValues>
            1.9265228509902954e-01 -1.6140726208686829e-01</leafValues></_>
        <_>
          <internalNodes>
            0 -1 249 -5.8491476811468601e-03</internalNodes>
          <leafValues>
            3.5789716243743896e-01 -9.4928197562694550e-02</leafValues></_>
        <_>
          <internalNodes>
            0 -1 278 3.5186824388802052e-03</internalNodes>
          <leafValues>
            -9.5916271209716797e-02 3.6202663183212280e-01</leafValues></_></weakClassifiers></_></stages>
  <features>
    <_>
      <rects>
        <_>
          0 2 10 4 -1.</_>
        <_>
          0 2 5 2 2.</_>
        <_>
          5 4 5 2 2.</_></rects>
      <tilted>0</tilted></_>
    <_>
      <rects>
        <_>
          0 3 2 6 -1.</_>
        <_>
          1 3 1 6 2.</_></rects>
      <tilted>0</tilted></_>
    <_>
      <rects>
        <_>
          0 4 2 10 -1.</_>
        <_>
          0 4 1 5 2.</_>
        <_>
          1 9 1 5 2.</_></rects>
      <tilted>0</tilted></_>
    <_>
      <rects>
        <_>
          0 4 2 11 -1.</_>
        <_>
          1 4 1 11 2.</_></rects>
      <tilted>0</tilted></_>
    <_>
      <rects>
        <_>
          0 4 2 14 -1.</_>
        <_>
          1 4 1 14 2.</_></rects>
      <tilted>0</tilted></_>
    <_>
      <rects>
        <_>
          0 4 6 6 -1.</_>
        <_>
          2 4 2 6 3.</_></rects>
      <tilted>0</tilted></_>
    <_>
      <rects>
        <_>
          0 5 3 4 -1.</_>
        <_>
          1 5 1 4 3.</_></rects>
      <tilted>0</tilted></_>
    <_>
      <rects>
        <_>
          0 5 2 8 -1.</_>
        <_>
          0 5 1 4 2.</_>
        <_>
          1 9 1 4 2.</_></rects>
      <tilted>0</tilted></_>
    <_>
      <rects>
        <_>
          0 5 2 12 -1.</_>
        <_>
          0 5 1 6 2.</_>
        <_>
          1 11 1 6 2.</_></rects>
      <tilted>0</tilted></_>
    <_>
      <rects>
        <_>
          0 5 2 11 -1.</_>
        <_>
          1 5 1 11 2.</_></rects>
      <tilted>0</tilted></_>
    <_>
      <rects>
        <_>
          0 5 2 12 -1.</_>
        <_>
          1 5 1 12 2.</_></rects>
      <tilted>0</tilted></_>
    <_>
      <rects>
        <_>
          0 6 2 6 -1.</_>
        <_>
          0 6 1 3 2.</_>
        <_>
          1 9 1 3 2.</_></rects>
      <tilted>0</tilted></_>
    <_>
      <rects>
        <_>
          0 6 2 8 -1.</_>
        <_>
          0 6 1 4 2.</_>
        <_>
          1 10 1 4 2.</_></rects>
      <tilted>0</tilted></_>
    <_>
      <rects>
        <_>
          0 7 2 8 -1.</_>
        <_>
          0 7 1 4 2.</_>
        <_>
          1 11 1 4 2.</_></rects>
      <tilted>0</tilted></_>
    <_>
      <rects>
        <_>
          0 8 3 2 -1.</_>
        <_>
          1 8 1 2 3.</_></rects>
      <tilted>0</tilted></_>
    <_>
      <rects>
        <_>
          0 9 3 1 -1.</_>
        <_>
          1 9 1 1 3.</_></rects>
      <tilted>0</tilted></_>
    <_>
      <rects>
        <_>
          0 10 2 1 -1.</_>
        <_>
          1 10 1 1 2.</_></rects>
      <tilted>0</tilted></_>
    <_>
      <rects>
        <_>
          0 10 2 9 -1.</_>
        <_>
          1 10 1 9 2.</_></rects>
      <tilted>0</tilted></_>
    <_>
      <rects>
        <_>
          0 16 18 4 -1.</_>
        <_>
          6 16 6 4 3.</_></rects>
      <tilted>0</tilted></_>
    <_>
      <rects>
        <_>
          1 4 2 10 -1.</_>
        <_>
          1 9 2 5 2.</_></rects>
      <tilted>0</tilted></_>
    <_>
      <rects>
        <_>
          1 6 1 6 -1.</_>
        <_>
          1 9 1 3 2.</_></rects>
      <tilted>0</tilted></_>
    <_>
      <rects>
        <_>
          1 6 2 3 -1.</_>
        <_>
          1 7 2 1 3.</_></rects>
      <tilted>0</tilted></_>
    <_>
      <rects>
        <_>
          1 8 3 5 -1.</_>
        <_>
          2 8 1 5 3.</_></rects>
      <tilted>0</tilted></_>
    <_>
      <rects>
        <_>
          1 8 3 7 -1.</_>
        <_>
          2 8 1 7 3.</_></rects>
      <tilted>0</tilted></_>
    <_>
      <rects>
        <_>
          1 9 2 2 -1.</_>
        <_>
          2 9 1 2 2.</_></rects>
      <tilted>0</tilted></_>
    <_>
      <rects>
        <_>
          1 9 12 6 -1.</_>
        <_>
          5 9 4 6 3.</_></rects>
      <tilted>0</tilted></_>
    <_>
      <rects>
        <_>
          1 10 2 1 -1.</_>
        <_>
          2 10 1 1 2.</_></rects>
      <tilted>0</tilted></_>
    <_>
      <rects>
        <_>
          1 11 12 6 -1.</_>
        <_>
          1 11 6 3 2.</_>
        <_>
          7 14 6 3 2.</_></rects>
      <tilted>0</tilted></_>
    <_>
      <rects>
        <_>
          2 2 8 4 -1.</_>
        <_>
          2 2 4 2 2.</_>
        <_>
          6 4 4 2 2.</_></rects>
      <tilted>0</tilted></_>
    <_>
      <rects>
        <_>
          2 3 2 8 -1.</_>
        <_>
          2 3 1 4 2.</_>
        <_>
          3 7 1 4 2.</_></rects>
      <tilted>0</tilted></_>
    <_>
      <rects>
        <_>
          2 3 12 14 -1.</_>
        <_>
          6 3 4 14 3.</_></rects>
      <tilted>0</tilted></_>
    <_>
      <rects>
        <_>
          2 5 15 3 -1.</_>
        <_>
          7 5 5 3 3.</_></rects>
      <tilted>0</tilted></_>
    <_>
      <rects>
        <_>
          2 6 1 3 -1.</_>
        <_>
          2 7 1 1 3.</_></rects>
      <tilted>0</tilted></_>
    <_>
      <rects>
        <_>
          2 6 9 11 -1.</_>
        <_>
          5 6 3 11 3.</_></rects>
      <tilted>0</tilted></_>
    <_>
      <rects>
        <_>
          2 8 1 3 -1.</_>
        <_>
          2 9 1 1 3.</_></rects>
      <tilted>0</tilted></_>
    <_>
      <rects>
        <_>
          2 9 1 3 -1.</_>
        <_>
          2 10 1 1 3.</_></rects>
      <tilted>0</tilted></_>
    <_>
      <rects>
        <_>
          2 9 2 4 -1.</_>
        <_>
          3 9 1 4 2.</_></rects>
      <tilted>0</tilted></_>
    <_>
      <rects>
        <_>
          2 11 2 6 -1.</_>
        <_>
          2 11 1 3 2.</_>
        <_>
          3 14 1 3 2.</_></rects>
      <tilted>0</tilted></_>
    <_>
      <rects>
        <_>
          2 11 4 6 -1.</_>
        <_>
          2 11 2 3 2.</_>
        <_>
          4 14 2 3 2.</_></rects>
      <tilted>0</tilted></_>
    <_>
      <rects>
        <_>
          2 13 4 4 -1.</_>
        <_>
          2 13 2 2 2.</_>
        <_>
          4 15 2 2 2.</_></rects>
      <tilted>0</tilted></_>
    <_>
      <rects>
        <_>
          2 15 4 1 -1.</_>
        <_>
          4 15 2 1 2.</_></rects>
      <tilted>0</tilted></_>
    <_>
      <rects>
        <_>
          3 0 12 2 -1.</_>
        <_>
          3 1 12 1 2.</_></rects>
      <tilted>0</tilted></_>
    <_>
      <rects>
        <_>
          3 1 2 18 -1.</_>
        <_>
          3 7 2 6 3.</_></rects>
      <tilted>0</tilted></_>
    <_>
      <rects>
        <_>
          3 3 1 3 -1.</_>
        <_>
          3 4 1 1 3.</_></rects>
      <tilted>0</tilted></_>
    <_>
      <rects>
        <_>
          3 3 4 4 -1.</_>
        <_>
          3 3 2 2 2.</_>
        <_>
          5 5 2 2 2.</_></rects>
      <tilted>0</tilted></_>
    <_>
      <rects>
        <_>
          3 3 6 2 -1.</_>
        <_>
          3 3 3 1 2.</_>
        <_>
          6 4 3 1 2.</_></rects>
      <tilted>0</tilted></_>
    <_>
      <rects>
        <_>
          3 4 2 2 -1.</_>
        <_>
          3 4 1 1 2.</_>
        <_>
          4 5 1 1 2.</_></rects>
      <tilted>0</tilted></_>
    <_>
      <rects>
        <_>
          3 4 2 4 -1.</_>
        <_>
          3 4 1 2 2.</_>
        <_>
          4 6 1 2 2.</_></rects>
      <tilted>0</tilted></_>
    <_>
      <rects>
        <_>
          3 4 2 6 -1.</_>
        <_>
          3 4 1 3 2.</_>
        <_>
          4 7 1 3 2.</_></rects>
      <tilted>0</tilted></_>
    <_>
      <rects>
        <_>
          3 4 4 2 -1.</_>
        <_>
          3 4 2 1 2.</_>
        <_>
          5 5 2 1 2.</_></rects>
      <tilted>0</tilted></_>
    <_>
      <rects>
        <_>
          3 5 2 2 -1.</_>
        <_>
          3 5 1 1 2.</_>
        <_>
          4 6 1 1 2.</_></rects>
      <tilted>0</tilted></_>
    <_>
      <rects>
        <_>
          3 9 9 7 -1.</_>
        <_>
          6 9 3 7 3.</_></rects>
      <tilted>0</tilted></_>
    <_>
      <rects>
        <_>
          3 12 10 4 -1.</_>
        <_>
          3 12 5 2 2.</_>
        <_>
          8 14 5 2 2.</_></rects>
      <tilted>0</tilted></_>
    <_>
      <rects>
        <_>
          3 15 2 2 -1.</_>
        <_>
          3 15 1 1 2.</_>
        <_>
          4 16 1 1 2.</_></rects>
      <tilted>0</tilted></_>
    <_>
      <rects>
        <_>
          3 18 14 2 -1.</_>
        <_>
          3 18 7 1 2.</_>
        <_>
          10 19 7 1 2.</_></rects>
      <tilted>0</tilted></_>
    <_>
      <rects>
        <_>
          4 0 12 2 -1.</_>
        <_>
          4 1 12 1 2.</_></rects>
      <tilted>0</tilted></_>
    <_>
      <rects>
        <_>
          4 3 1 3 -1.</_>
        <_>
          4 4 1 1 3.</_></rects>
      <tilted>0</tilted></_>
    <_>
      <rects>
        <_>
          4 4 2 2 -1.</_>
        <_>
          4 4 1 1 2.</_>
        <_>
          5 5 1 1 2.</_></rects>
      <tilted>0</tilted></_>
    <_>
      <rects>
        <_>
          4 10 10 2 -1.</_>
        <_>
          9 10 5 2 2.</_></rects>
      <tilted>0</tilted></_>
    <_>
      <rects>
        <_>
          4 11 8 3 -1.</_>
        <_>
          8 11 4 3 2.</_></rects>
      <tilted>0</tilted></_>
    <_>
      <rects>
        <_>
          4 15 4 4 -1.</_>
        <_>
          4 15 2 2 2.</_>
        <_>
          6 17 2 2 2.</_></rects>
      <tilted>0</tilted></_>
    <_>
      <rects>
        <_>
          4 18 15 2 -1.</_>
        <_>
          4 19 15 1 2.</_></rects>
      <tilted>0</tilted></_>
    <_>
      <rects>
        <_>
          5 0 11 6 -1.</_>
        <_>
          5 2 11 2 3.</_></rects>
      <tilted>0</tilted></_>
    <_>
      <rects>
        <_>
          5 2 3 2 -1.</_>
        <_>
          6 2 1 2 3.</_></rects>
      <tilted>0</tilted></_>
    <_>
      <rects>
        <_>
          5 2 3 3 -1.</_>
        <_>
          6 2 1 3 3.</_></rects>
      <tilted>0</tilted></_>
    <_>
      <rects>
        <_>
          5 3 1 3 -1.</_>
        <_>
          5 4 1 1 3.</_></rects>
      <tilted>0</tilted></_>
    <_>
      <rects>
        <_>
          5 3 2 2 -1.</_>
        <_>
          5 3 1 1 2.</_>
        <_>
          6 4 1 1 2.</_></rects>
      <tilted>0</tilted></_>
    <_>
      <rects>
        <_>
          5 12 8 6 -1.</_>
        <_>
          5 12 4 3 2.</_>
        <_>
          9 15 4 3 2.</_></rects>
      <tilted>0</tilted></_>
    <_>
      <rects>
        <_>
          5 16 9 2 -1.</_>
        <_>
          5 17 9 1 2.</_></rects>
      <tilted>0</tilted></_>
    <_>
      <rects>
        <_>
          5 18 3 1 -1.</_>
        <_>
          6 18 1 1 3.</_></rects>
      <tilted>0</tilted></_>
    <_>
      <rects>
        <_>
          5 18 12 1 -1.</_>
        <_>
          11 18 6 1 2.</_></rects>
      <tilted>0</tilted></_>
    <_>
      <rects>
        <_>
          5 18 12 2 -1.</_>
        <_>
          5 18 6 1 2.</_>
        <_>
          11 19 6 1 2.</_></rects>
      <tilted>0</tilted></_>
    <_>
      <rects>
        <_>
          5 18 9 2 -1.</_>
        <_>
          5 19 9 1 2.</_></rects>
      <tilted>0</tilted></_>
    <_>
      <rects>
        <_>
          6 0 6 2 -1.</_>
        <_>
          6 0 3 1 2.</_>
        <_>
          9 1 3 1 2.</_></rects>
      <tilted>0</tilted></_>
    <_>
      <rects>
        <_>
          6 1 1 12 -1.</_>
        <_>
          6 7 1 6 2.</_></rects>
      <tilted>0</tilted></_>
    <_>
      <rects>
        <_>
          6 1 8 3 -1.</_>
        <_>
          6 2 8 1 3.</_></rects>
      <tilted>0</tilted></_>
    <_>
      <rects>
        <_>
          6 2 2 1 -1.</_>
        <_>
          7 2 1 1 2.</_></rects>
      <tilted>0</tilted></_>
    <_>
      <rects>
        <_>
          6 2 6 2 -1.</_>
        <_>
          6 2 3 1 2.</_>
        <_>
          9 3 3 1 2.</_></rects>
      <tilted>0</tilted></_>
    <_>
      <rects>
        <_>
          6 3 3 1 -1.</_>
        <_>
          7 3 1 1 3.</_></rects>
      <tilted>0</tilted></_>
    <_>
      <rects>
        <_>
          6 3 6 8 -1.</_>
        <_>
          6 3 3 4 2.</_>
        <_>
          9 7 3 4 2.</_></rects>
      <tilted>0</tilted></_>
    <_>
      <rects>
        <_>
          6 5 10 9 -1.</_>
        <_>
          11 5 5 9 2.</_></rects>
      <tilted>0</tilted></_>
    <_>
      <rects>
        <_>
          6 8 6 6 -1.</_>
        <_>
          9 8 3 6 2.</_></rects>
      <tilted>0</tilted></_>
    <_>
      <rects>
        <_>
          6 18 3 1 -1.</_>
        <_>
          7 18 1 1 3.</_></rects>
      <tilted>0</tilted></_>
    <_>
      <rects>
        <_>
          6 18 2 2 -1.</_>
        <_>
          6 19 2 1 2.</_></rects>
      <tilted>0</tilted></_>
    <_>
      <rects>
        <_>
          7 0 2 3 -1.</_>
        <_>
          7 1 2 1 3.</_></rects>
      <tilted>0</tilted></_>
    <_>
      <rects>
        <_>
          7 0 10 2 -1.</_>
        <_>
          7 0 5 1 2.</_>
        <_>
          12 1 5 1 2.</_></rects>
      <tilted>0</tilted></_>
    <_>
      <rects>
        <_>
          7 2 3 1 -1.</_>
        <_>
          8 2 1 1 3.</_></rects>
      <tilted>0</tilted></_>
    <_>
      <rects>
        <_>
          7 2 10 10 -1.</_>
        <_>
          7 7 10 5 2.</_></rects>
      <tilted>0</tilted></_>
    <_>
      <rects>
        <_>
          7 5 11 6 -1.</_>
        <_>
          7 7 11 2 3.</_></rects>
      <tilted>0</tilted></_>
    <_>
      <rects>
        <_>
          7 8 9 4 -1.</_>
        <_>
          10 8 3 4 3.</_></rects>
      <tilted>0</tilted></_>
    <_>
      <rects>
        <_>
          7 10 4 3 -1.</_>
        <_>
          9 10 2 3 2.</_></rects>
      <tilted>0</tilted></_>
    <_>
      <rects>
        <_>
          7 10 9 1 -1.</_>
        <_>
          10 10 3 1 3.</_></rects>
      <tilted>0</tilted></_>
    <_>
      <rects>
        <_>
          7 18 8 2 -1.</_>
        <_>
          7 19 8 1 2.</_></rects>
      <tilted>0</tilted></_>
    <_>
      <rects>
        <_>
          8 0 2 4 -1.</_>
        <_>
          8 0 1 2 2.</_>
        <_>
          9 2 1 2 2.</_></rects>
      <tilted>0</tilted></_>
    <_>
      <rects>
        <_>
          8 1 2 3 -1.</_>
        <_>
          8 2 2 1 3.</_></rects>
      <tilted>0</tilted></_>
    <_>
      <rects>
        <_>
          8 1 5 2 -1.</_>
        <_>
          8 2 5 1 2.</_></rects>
      <tilted>0</tilted></_>
    <_>
      <rects>
        <_>
          8 1 6 2 -1.</_>
        <_>
          8 2 6 1 2.</_></rects>
      <tilted>0</tilted></_>
    <_>
      <rects>
        <_>
          8 2 3 2 -1.</_>
        <_>
          9 2 1 2 3.</_></rects>
      <tilted>0</tilted></_>
    <_>
      <rects>
        <_>
          8 2 8 4 -1.</_>
        <_>
          8 2 4 2 2.</_>
        <_>
          12 4 4 2 2.</_></rects>
      <tilted>0</tilted></_>
    <_>
      <rects>
        <_>
          8 7 6 6 -1.</_>
        <_>
          10 7 2 6 3.</_></rects>
      <tilted>0</tilted></_>
    <_>
      <rects>
        <_>
          8 8 4 4 -1.</_>
        <_>
          8 8 2 2 2.</_>
        <_>
          10 10 2 2 2.</_></rects>
      <tilted>0</tilted></_>
    <_>
      <rects>
        <_>
          9 0 2 3 -1.</_>
        <_>
          9 1 2 1 3.</_></rects>
      <tilted>0</tilted></_>
    <_>
      <rects>
        <_>
          9 1 2 2 -1.</_>
        <_>
          9 2 2 1 2.</_></rects>
      <tilted>0</tilted></_>
    <_>
      <rects>
        <_>
          9 1 2 3 -1.</_>
        <_>
          9 2 2 1 3.</_></rects>
      <tilted>0</tilted></_>
    <_>
      <rects>
        <_>
          9 1 3 2 -1.</_>
        <_>
          9 2 3 1 2.</_></rects>
      <tilted>0</tilted></_>
    <_>
      <rects>
        <_>
          9 1 3 3 -1.</_>
        <_>
          9 2 3 1 3.</_></rects>
      <tilted>0</tilted></_>
    <_>
      <rects>
        <_>
          9 2 3 1 -1.</_>
        <_>
          10 2 1 1 3.</_></rects>
      <tilted>0</tilted></_>
    <_>
      <rects>
        <_>
          9 4 8 3 -1.</_>
        <_>
          13 4 4 3 2.</_></rects>
      <tilted>0</tilted></_>
    <_>
      <rects>
        <_>
          9 8 7 4 -1.</_>
        <_>
          9 10 7 2 2.</_></rects>
      <tilted>0</tilted></_>
    <_>
      <rects>
        <_>
          9 9 2 4 -1.</_>
        <_>
          9 9 1 2 2.</_>
        <_>
          10 11 1 2 2.</_></rects>
      <tilted>0</tilted></_>
    <_>
      <rects>
        <_>
          9 12 3 1 -1.</_>
        <_>
          10 12 1 1 3.</_></rects>
      <tilted>0</tilted></_>
    <_>
      <rects>
        <_>
          9 12 4 4 -1.</_>
        <_>
          9 14 4 2 2.</_></rects>
      <tilted>0</tilted></_>
    <_>
      <rects>
        <_>
          9 13 2 6 -1.</_>
        <_>
          9 15 2 2 3.</_></rects>
      <tilted>0</tilted></_>
    <_>
      <rects>
        <_>
          9 15 4 3 -1.</_>
        <_>
          9 16 4 1 3.</_></rects>
      <tilted>0</tilted></_>
    <_>
      <rects>
        <_>
          9 17 2 3 -1.</_>
        <_>
          9 18 2 1 3.</_></rects>
      <tilted>0</tilted></_>
    <_>
      <rects>
        <_>
          9 17 3 3 -1.</_>
        <_>
          9 18 3 1 3.</_></rects>
      <tilted>0</tilted></_>
    <_>
      <rects>
        <_>
          10 1 2 18 -1.</_>
        <_>
          10 7 2 6 3.</_></rects>
      <tilted>0</tilted></_>
    <_>
      <rects>
        <_>
          10 1 4 12 -1.</_>
        <_>
          10 5 4 4 3.</_></rects>
      <tilted>0</tilted></_>
    <_>
      <rects>
        <_>
          10 2 2 3 -1.</_>
        <_>
          10 3 2 1 3.</_></rects>
      <tilted>0</tilted></_>
    <_>
      <rects>
        <_>
          10 3 8 3 -1.</_>
        <_>
          10 4 8 1 3.</_></rects>
      <tilted>0</tilted></_>
    <_>
      <rects>
        <_>
          10 6 10 6 -1.</_>
        <_>
          15 6 5 6 2.</_></rects>
      <tilted>0</tilted></_>
    <_>
      <rects>
        <_>
          10 7 1 4 -1.</_>
        <_>
          10 9 1 2 2.</_></rects>
      <tilted>0</tilted></_>
    <_>
      <rects>
        <_>
          10 8 6 12 -1.</_>
        <_>
          10 8 3 6 2.</_>
        <_>
          13 14 3 6 2.</_></rects>
      <tilted>0</tilted></_>
    <_>
      <rects>
        <_>
          10 8 10 7 -1.</_>
        <_>
          15 8 5 7 2.</_></rects>
      <tilted>0</tilted></_>
    <_>
      <rects>
        <_>
          10 9 6 10 -1.</_>
        <_>
          10 9 3 5 2.</_>
        <_>
          13 14 3 5 2.</_></rects>
      <tilted>0</tilted></_>
    <_>
      <rects>
        <_>
          10 10 1 2 -1.</_>
        <_>
          10 11 1 1 2.</_></rects>
      <tilted>0</tilted></_>
    <_>
      <rects>
        <_>
          10 10 2 2 -1.</_>
        <_>
          10 11 2 1 2.</_></rects>
      <tilted>0</tilted></_>
    <_>
      <rects>
        <_>
          10 10 6 10 -1.</_>
        <_>
          10 10 3 5 2.</_>
        <_>
          13 15 3 5 2.</_></rects>
      <tilted>0</tilted></_>
    <_>
      <rects>
        <_>
          10 10 8 9 -1.</_>
        <_>
          14 10 4 9 2.</_></rects>
      <tilted>0</tilted></_>
    <_>
      <rects>
        <_>
          10 11 2 1 -1.</_>
        <_>
          11 11 1 1 2.</_></rects>
      <tilted>0</tilted></_>
    <_>
      <rects>
        <_>
          10 11 1 2 -1.</_>
        <_>
          10 12 1 1 2.</_></rects>
      <tilted>0</tilted></_>
    <_>
      <rects>
        <_>
          10 11 3 1 -1.</_>
        <_>
          11 11 1 1 3.</_></rects>
      <tilted>0</tilted></_>
    <_>
      <rects>
        <_>
          10 11 3 2 -1.</_>
        <_>
          11 11 1 2 3.</_></rects>
      <tilted>0</tilted></_>
    <_>
      <rects>
        <_>
          10 11 6 6 -1.</_>
        <_>
          10 11 3 3 2.</_>
        <_>
          13 14 3 3 2.</_></rects>
      <tilted>0</tilted></_>
    <_>
      <rects>
        <_>
          10 11 10 4 -1.</_>
        <_>
          15 11 5 4 2.</_></rects>
      <tilted>0</tilted></_>
    <_>
      <rects>
        <_>
          10 12 3 1 -1.</_>
        <_>
          11 12 1 1 3.</_></rects>
      <tilted>0</tilted></_>
    <_>
      <rects>
        <_>
          10 18 2 2 -1.</_>
        <_>
          10 19 2 1 2.</_></rects>
      <tilted>0</tilted></_>
    <_>
      <rects>
        <_>
          11 2 2 1 -1.</_>
        <_>
          12 2 1 1 2.</_></rects>
      <tilted>0</tilted></_>
    <_>
      <rects>
        <_>
          11 2 3 1 -1.</_>
        <_>
          12 2 1 1 3.</_></rects>
      <tilted>0</tilted></_>
    <_>
      <rects>
        <_>
          11 2 3 2 -1.</_>
        <_>
          12 2 1 2 3.</_></rects>
      <tilted>0</tilted></_>
    <_>
      <rects>
        <_>
          11 2 4 1 -1.</_>
        <_>
          13 2 2 1 2.</_></rects>
      <tilted>0</tilted></_>
    <_>
      <rects>
        <_>
          11 2 6 4 -1.</_>
        <_>
          11 2 3 2 2.</_>
        <_>
          14 4 3 2 2.</_></rects>
      <tilted>0</tilted></_>
    <_>
      <rects>
        <_>
          11 6 2 8 -1.</_>
        <_>
          11 10 2 4 2.</_></rects>
      <tilted>0</tilted></_>
    <_>
      <rects>
        <_>
          11 6 3 6 -1.</_>
        <_>
          11 9 3 3 2.</_></rects>
      <tilted>0</tilted></_>
    <_>
      <rects>
        <_>
          11 9 1 4 -1.</_>
        <_>
          11 11 1 2 2.</_></rects>
      <tilted>0</tilted></_>
    <_>
      <rects>
        <_>
          11 10 1 2 -1.</_>
        <_>
          11 11 1 1 2.</_></rects>
      <tilted>0</tilted></_>
    <_>
      <rects>
        <_>
          11 10 3 1 -1.</_>
        <_>
          12 10 1 1 3.</_></rects>
      <tilted>0</tilted></_>
    <_>
      <rects>
        <_>
          11 10 4 2 -1.</_>
        <_>
          13 10 2 2 2.</_></rects>
      <tilted>0</tilted></_>
    <_>
      <rects>
        <_>
          11 10 8 4 -1.</_>
        <_>
          15 10 4 4 2.</_></rects>
      <tilted>0</tilted></_>
    <_>
      <rects>
        <_>
          11 11 1 2 -1.</_>
        <_>
          11 12 1 1 2.</_></rects>
      <tilted>0</tilted></_>
    <_>
      <rects>
        <_>
          11 11 3 1 -1.</_>
        <_>
          12 11 1 1 3.</_></rects>
      <tilted>0</tilted></_>
    <_>
      <rects>
        <_>
          11 11 4 2 -1.</_>
        <_>
          13 11 2 2 2.</_></rects>
      <tilted>0</tilted></_>
    <_>
      <rects>
        <_>
          11 12 2 1 -1.</_>
        <_>
          12 12 1 1 2.</_></rects>
      <tilted>0</tilted></_>
    <_>
      <rects>
        <_>
          11 12 1 2 -1.</_>
        <_>
          11 13 1 1 2.</_></rects>
      <tilted>0</tilted></_>
    <_>
      <rects>
        <_>
          11 12 6 4 -1.</_>
        <_>
          11 12 3 2 2.</_>
        <_>
          14 14 3 2 2.</_></rects>
      <tilted>0</tilted></_>
    <_>
      <rects>
        <_>
          11 14 8 4 -1.</_>
        <_>
          11 14 4 2 2.</_>
        <_>
          15 16 4 2 2.</_></rects>
      <tilted>0</tilted></_>
    <_>
      <rects>
        <_>
          11 16 4 2 -1.</_>
        <_>
          11 16 2 1 2.</_>
        <_>
          13 17 2 1 2.</_></rects>
      <tilted>0</tilted></_>
    <_>
      <rects>
        <_>
          11 17 4 3 -1.</_>
        <_>
          11 18 4 1 3.</_></rects>
      <tilted>0</tilted></_>
    <_>
      <rects>
        <_>
          11 18 3 1 -1.</_>
        <_>
          12 18 1 1 3.</_></rects>
      <tilted>0</tilted></_>
    <_>
      <rects>
        <_>
          12 0 5 2 -1.</_>
        <_>
          12 1 5 1 2.</_></rects>
      <tilted>0</tilted></_>
    <_>
      <rects>
        <_>
          12 2 1 2 -1.</_>
        <_>
          12 3 1 1 2.</_></rects>
      <tilted>0</tilted></_>
    <_>
      <rects>
        <_>
          12 2 2 2 -1.</_>
        <_>
          13 2 1 2 2.</_></rects>
      <tilted>0</tilted></_>
    <_>
      <rects>
        <_>
          12 2 3 2 -1.</_>
        <_>
          13 2 1 2 3.</_></rects>
      <tilted>0</tilted></_>
    <_>
      <rects>
        <_>
          12 2 2 2 -1.</_>
        <_>
          12 3 2 1 2.</_></rects>
      <tilted>0</tilted></_>
    <_>
      <rects>
        <_>
          12 2 6 4 -1.</_>
        <_>
          12 2 3 2 2.</_>
        <_>
          15 4 3 2 2.</_></rects>
      <tilted>0</tilted></_>
    <_>
      <rects>
        <_>
          12 3 1 2 -1.</_>
        <_>
          12 4 1 1 2.</_></rects>
      <tilted>0</tilted></_>
    <_>
      <rects>
        <_>
          12 3 4 2 -1.</_>
        <_>
          12 3 2 1 2.</_>
        <_>
          14 4 2 1 2.</_></rects>
      <tilted>0</tilted></_>
    <_>
      <rects>
        <_>
          12 7 6 4 -1.</_>
        <_>
          14 7 2 4 3.</_></rects>
      <tilted>0</tilted></_>
    <_>
      <rects>
        <_>
          12 8 2 4 -1.</_>
        <_>
          12 10 2 2 2.</_></rects>
      <tilted>0</tilted></_>
    <_>
      <rects>
        <_>
          12 8 4 4 -1.</_>
        <_>
          12 8 2 2 2.</_>
        <_>
          14 10 2 2 2.</_></rects>
      <tilted>0</tilted></_>
    <_>
      <rects>
        <_>
          12 9 6 3 -1.</_>
        <_>
          14 9 2 3 3.</_></rects>
      <tilted>0</tilted></_>
    <_>
      <rects>
        <_>
          12 12 2 1 -1.</_>
        <_>
          13 12 1 1 2.</_></rects>
      <tilted>0</tilted></_>
    <_>
      <rects>
        <_>
          12 12 4 8 -1.</_>
        <_>
          12 16 4 4 2.</_></rects>
      <tilted>0</tilted></_>
    <_>
      <rects>
        <_>
          12 13 2 2 -1.</_>
        <_>
          12 13 1 1 2.</_>
        <_>
          13 14 1 1 2.</_></rects>
      <tilted>0</tilted></_>
    <_>
      <rects>
        <_>
          12 15 6 4 -1.</_>
        <_>
          12 15 3 2 2.</_>
        <_>
          15 17 3 2 2.</_></rects>
      <tilted>0</tilted></_>
    <_>
      <rects>
        <_>
          12 16 3 2 -1.</_>
        <_>
          13 16 1 2 3.</_></rects>
      <tilted>0</tilted></_>
    <_>
      <rects>
        <_>
          12 16 2 4 -1.</_>
        <_>
          13 16 1 4 2.</_></rects>
      <tilted>0</tilted></_>
    <_>
      <rects>
        <_>
          12 17 4 3 -1.</_>
        <_>
          12 18 4 1 3.</_></rects>
      <tilted>0</tilted></_>
    <_>
      <rects>
        <_>
          13 2 2 1 -1.</_>
        <_>
          14 2 1 1 2.</_></rects>
      <tilted>0</tilted></_>
    <_>
      <rects>
        <_>
          13 2 6 6 -1.</_>
        <_>
          13 2 3 3 2.</_>
        <_>
          16 5 3 3 2.</_></rects>
      <tilted>0</tilted></_>
    <_>
      <rects>
        <_>
          13 3 1 2 -1.</_>
        <_>
          13 4 1 1 2.</_></rects>
      <tilted>0</tilted></_>
    <_>
      <rects>
        <_>
          13 3 2 3 -1.</_>
        <_>
          14 3 1 3 2.</_></rects>
      <tilted>0</tilted></_>
    <_>
      <rects>
        <_>
          13 3 4 4 -1.</_>
        <_>
          13 3 2 2 2.</_>
        <_>
          15 5 2 2 2.</_></rects>
      <tilted>0</tilted></_>
    <_>
      <rects>
        <_>
          13 4 2 2 -1.</_>
        <_>
          13 4 1 1 2.</_>
        <_>
          14 5 1 1 2.</_></rects>
      <tilted>0</tilted></_>
    <_>
      <rects>
        <_>
          13 5 6 9 -1.</_>
        <_>
          16 5 3 9 2.</_></rects>
      <tilted>0</tilted></_>
    <_>
      <rects>
        <_>
          13 6 6 1 -1.</_>
        <_>
          15 6 2 1 3.</_></rects>
      <tilted>0</tilted></_>
    <_>
      <rects>
        <_>
          13 7 6 6 -1.</_>
        <_>
          15 7 2 6 3.</_></rects>
      <tilted>0</tilted></_>
    <_>
      <rects>
        <_>
          13 12 4 4 -1.</_>
        <_>
          13 12 2 2 2.</_>
        <_>
          15 14 2 2 2.</_></rects>
      <tilted>0</tilted></_>
    <_>
      <rects>
        <_>
          13 13 4 4 -1.</_>
        <_>
          13 13 2 2 2.</_>
        <_>
          15 15 2 2 2.</_></rects>
      <tilted>0</tilted></_>
    <_>
      <rects>
        <_>
          13 14 4 4 -1.</_>
        <_>
          13 14 2 2 2.</_>
        <_>
          15 16 2 2 2.</_></rects>
      <tilted>0</tilted></_>
    <_>
      <rects>
        <_>
          13 15 3 4 -1.</_>
        <_>
          14 15 1 4 3.</_></rects>
      <tilted>0</tilted></_>
    <_>
      <rects>
        <_>
          14 2 4 6 -1.</_>
        <_>
          14 2 2 3 2.</_>
        <_>
          16 5 2 3 2.</_></rects>
      <tilted>0</tilted></_>
    <_>
      <rects>
        <_>
          14 2 2 8 -1.</_>
        <_>
          14 6 2 4 2.</_></rects>
      <tilted>0</tilted></_>
    <_>
      <rects>
        <_>
          14 3 3 3 -1.</_>
        <_>
          15 3 1 3 3.</_></rects>
      <tilted>0</tilted></_>
    <_>
      <rects>
        <_>
          14 3 4 4 -1.</_>
        <_>
          14 3 2 2 2.</_>
        <_>
          16 5 2 2 2.</_></rects>
      <tilted>0</tilted></_>
    <_>
      <rects>
        <_>
          14 4 4 4 -1.</_>
        <_>
          14 4 2 2 2.</_>
        <_>
          16 6 2 2 2.</_></rects>
      <tilted>0</tilted></_>
    <_>
      <rects>
        <_>
          14 5 3 1 -1.</_>
        <_>
          15 5 1 1 3.</_></rects>
      <tilted>0</tilted></_>
    <_>
      <rects>
        <_>
          14 5 2 2 -1.</_>
        <_>
          14 5 1 1 2.</_>
        <_>
          15 6 1 1 2.</_></rects>
      <tilted>0</tilted></_>
    <_>
      <rects>
        <_>
          14 7 6 5 -1.</_>
        <_>
          16 7 2 5 3.</_></rects>
      <tilted>0</tilted></_>
    <_>
      <rects>
        <_>
          14 13 4 4 -1.</_>
        <_>
          14 13 2 2 2.</_>
        <_>
          16 15 2 2 2.</_></rects>
      <tilted>0</tilted></_>
    <_>
      <rects>
        <_>
          14 14 4 4 -1.</_>
        <_>
          14 14 2 2 2.</_>
        <_>
          16 16 2 2 2.</_></rects>
      <tilted>0</tilted></_>
    <_>
      <rects>
        <_>
          14 15 2 2 -1.</_>
        <_>
          14 15 1 1 2.</_>
        <_>
          15 16 1 1 2.</_></rects>
      <tilted>0</tilted></_>
    <_>
      <rects>
        <_>
          14 15 3 5 -1.</_>
        <_>
          15 15 1 5 3.</_></rects>
      <tilted>0</tilted></_>
    <_>
      <rects>
        <_>
          15 0 1 6 -1.</_>
        <_>
          15 3 1 3 2.</_></rects>
      <tilted>0</tilted></_>
    <_>
      <rects>
        <_>
          15 2 4 12 -1.</_>
        <_>
          15 2 2 6 2.</_>
        <_>
          17 8 2 6 2.</_></rects>
      <tilted>0</tilted></_>
    <_>
      <rects>
        <_>
          15 2 3 16 -1.</_>
        <_>
          15 10 3 8 2.</_></rects>
      <tilted>0</tilted></_>
    <_>
      <rects>
        <_>
          15 3 2 1 -1.</_>
        <_>
          16 3 1 1 2.</_></rects>
      <tilted>0</tilted></_>
    <_>
      <rects>
        <_>
          15 3 2 2 -1.</_>
        <_>
          16 3 1 2 2.</_></rects>
      <tilted>0</tilted></_>
    <_>
      <rects>
        <_>
          15 3 2 4 -1.</_>
        <_>
          15 3 1 2 2.</_>
        <_>
          16 5 1 2 2.</_></rects>
      <tilted>0</tilted></_>
    <_>
      <rects>
        <_>
          15 3 3 4 -1.</_>
        <_>
          16 3 1 4 3.</_></rects>
      <tilted>0</tilted></_>
    <_>
      <rects>
        <_>
          15 4 2 4 -1.</_>
        <_>
          15 4 1 2 2.</_>
        <_>
          16 6 1 2 2.</_></rects>
      <tilted>0</tilted></_>
    <_>
      <rects>
        <_>
          15 4 4 3 -1.</_>
        <_>
          17 4 2 3 2.</_></rects>
      <tilted>0</tilted></_>
    <_>
      <rects>
        <_>
          15 4 4 6 -1.</_>
        <_>
          15 4 2 3 2.</_>
        <_>
          17 7 2 3 2.</_></rects>
      <tilted>0</tilted></_>
    <_>
      <rects>
        <_>
          15 5 2 2 -1.</_>
        <_>
          15 5 1 1 2.</_>
        <_>
          16 6 1 1 2.</_></rects>
      <tilted>0</tilted></_>
    <_>
      <rects>
        <_>
          15 5 3 3 -1.</_>
        <_>
          15 6 3 1 3.</_></rects>
      <tilted>0</tilted></_>
    <_>
      <rects>
        <_>
          15 10 2 8 -1.</_>
        <_>
          15 10 1 4 2.</_>
        <_>
          16 14 1 4 2.</_></rects>
      <tilted>0</tilted></_>
    <_>
      <rects>
        <_>
          15 11 4 6 -1.</_>
        <_>
          15 11 2 3 2.</_>
        <_>
          17 14 2 3 2.</_></rects>
      <tilted>0</tilted></_>
    <_>
      <rects>
        <_>
          15 13 2 4 -1.</_>
        <_>
          15 13 1 2 2.</_>
        <_>
          16 15 1 2 2.</_></rects>
      <tilted>0</tilted></_>
    <_>
      <rects>
        <_>
          15 14 1 4 -1.</_>
        <_>
          15 16 1 2 2.</_></rects>
      <tilted>0</tilted></_>
    <_>
      <rects>
        <_>
          15 14 2 4 -1.</_>
        <_>
          15 14 1 2 2.</_>
        <_>
          16 16 1 2 2.</_></rects>
      <tilted>0</tilted></_>
    <_>
      <rects>
        <_>
          15 14 3 5 -1.</_>
        <_>
          16 14 1 5 3.</_></rects>
      <tilted>0</tilted></_>
    <_>
      <rects>
        <_>
          16 2 2 2 -1.</_>
        <_>
          16 2 1 1 2.</_>
        <_>
          17 3 1 1 2.</_></rects>
      <tilted>0</tilted></_>
    <_>
      <rects>
        <_>
          16 2 3 7 -1.</_>
        <_>
          17 2 1 7 3.</_></rects>
      <tilted>0</tilted></_>
    <_>
      <rects>
        <_>
          16 3 3 2 -1.</_>
        <_>
          17 3 1 2 3.</_></rects>
      <tilted>0</tilted></_>
    <_>
      <rects>
        <_>
          16 3 1 14 -1.</_>
        <_>
          16 10 1 7 2.</_></rects>
      <tilted>0</tilted></_>
    <_>
      <rects>
        <_>
          16 4 2 4 -1.</_>
        <_>
          16 4 1 2 2.</_>
        <_>
          17 6 1 2 2.</_></rects>
      <tilted>0</tilted></_>
    <_>
      <rects>
        <_>
          16 4 2 8 -1.</_>
        <_>
          16 4 1 4 2.</_>
        <_>
          17 8 1 4 2.</_></rects>
      <tilted>0</tilted></_>
    <_>
      <rects>
        <_>
          16 5 2 2 -1.</_>
        <_>
          16 5 1 1 2.</_>
        <_>
          17 6 1 1 2.</_></rects>
      <tilted>0</tilted></_>
    <_>
      <rects>
        <_>
          16 5 2 2 -1.</_>
        <_>
          17 5 1 2 2.</_></rects>
      <tilted>0</tilted></_>
    <_>
      <rects>
        <_>
          16 5 2 6 -1.</_>
        <_>
          16 5 1 3 2.</_>
        <_>
          17 8 1 3 2.</_></rects>
      <tilted>0</tilted></_>
    <_>
      <rects>
        <_>
          16 6 2 1 -1.</_>
        <_>
          17 6 1 1 2.</_></rects>
      <tilted>0</tilted></_>
    <_>
      <rects>
        <_>
          16 6 3 8 -1.</_>
        <_>
          17 6 1 8 3.</_></rects>
      <tilted>0</tilted></_>
    <_>
      <rects>
        <_>
          16 8 2 2 -1.</_>
        <_>
