<?xml version="1.0"?>
<opencv_storage>
<stage9>
  <maxWeakCount>44</maxWeakCount>
  <stageThreshold>-6.9341528415679932e-01</stageThreshold>
  <weakClassifiers>
    <_>
      <internalNodes>
        0 -1 63035 2.5779400020837784e-03</internalNodes>
      <leafValues>
        3.9336881041526794e-01 -2.3735408484935760e-01</leafValues></_>
    <_>
      <internalNodes>
        0 -1 77240 5.4488284513354301e-03</internalNodes>
      <leafValues>
        -1.1163321882486343e-01 3.4600058197975159e-01</leafValues></_>
    <_>
      <internalNodes>
        0 -1 19216 -2.7406844310462475e-03</internalNodes>
      <leafValues>
        -5.1957416534423828e-01 7.3615156114101410e-02</leafValues></_>
    <_>
      <internalNodes>
        0 -1 2137 8.1427749246358871e-03</internalNodes>
      <leafValues>
        -1.0838601738214493e-01 3.5799404978752136e-01</leafValues></_>
    <_>
      <internalNodes>
        0 -1 48814 -2.0515333861112595e-02</internalNodes>
      <leafValues>
        4.6698117256164551e-01 -1.0310930758714676e-01</leafValues></_>
    <_>
      <internalNodes>
        0 -1 65202 -1.8329703016206622e-04</internalNodes>
      <leafValues>
        2.0172362029552460e-01 -2.0175485312938690e-01</leafValues></_>
    <_>
      <internalNodes>
        0 -1 65694 7.3455041274428368e-03</internalNodes>
      <leafValues>
        -1.0545216500759125e-01 3.3192923665046692e-01</leafValues></_>
    <_>
      <internalNodes>
        0 -1 63033 5.1192077808082104e-04</internalNodes>
      <leafValues>
        -1.6982252895832062e-01 2.0088090002536774e-01</leafValues></_>
    <_>
      <internalNodes>
        0 -1 70996 4.8376843333244324e-03</internalNodes>
      <leafValues>
        -1.0569258779287338e-01 2.9043641686439514e-01</leafValues></_>
    <_>
      <internalNodes>
        0 -1 68589 -3.0241899657994509e-03</internalNodes>
      <leafValues>
        -3.9489972591400146e-01 1.0513427108526230e-01</leafValues></_>
    <_>
      <internalNodes>
        0 -1 69461 1.0379089042544365e-02</internalNodes>
      <leafValues>
        -7.9476118087768555e-02 4.4860476255416870e-01</leafValues></_>
    <_>
      <internalNodes>
        0 -1 77212 -2.9403534717857838e-03</internalNodes>
      <leafValues>
        -5.0206935405731201e-01 8.0977119505405426e-02</leafValues></_>
    <_>
      <internalNodes>
        0 -1 3361 -7.5863078236579895e-03</internalNodes>
      <leafValues>
        2.6742574572563171e-01 -1.1930301040410995e-01</leafValues></_>
    <_>
      <internalNodes>
        0 -1 5719 5.5266027338802814e-03</internalNodes>
      <leafValues>
        -1.1309614777565002e-01 2.7827978134155273e-01</leafValues></_>
    <_>
      <internalNodes>
        0 -1 49975 -3.5722728352993727e-03</internalNodes>
      <leafValues>
        -4.6527099609375000e-01 7.8860059380531311e-02</leafValues></_>
    <_>
      <internalNodes>
        0 -1 59375 -2.1731057204306126e-03</internalNodes>
      <leafValues>
        2.5701051950454712e-01 -1.3027702271938324e-01</leafValues></_>
    <_>
      <internalNodes>
        0 -1 75709 -3.1348341144621372e-03</internalNodes>
      <leafValues>
        3.1771659851074219e-01 -1.0318015515804291e-01</leafValues></_>
    <_>
      <internalNodes>
        0 -1 75820 5.1861832616850734e-04</internalNodes>
      <leafValues>
        -1.6449129581451416e-01 2.6975378394126892e-01</leafValues></_>
    <_>
      <internalNodes>
        0 -1 77891 -2.9124834691174328e-04</internalNodes>
      <leafValues>
        -2.6824823021888733e-01 1.3170170783996582e-01</leafValues></_>
    <_>
      <internalNodes>
        0 -1 74327 -5.9567103162407875e-03</internalNodes>
      <leafValues>
        -4.8212006688117981e-01 6.3657931983470917e-02</leafValues></_>
    <_>
      <internalNodes>
        0 -1 39829 9.6398741006851196e-03</internalNodes>
      <leafValues>
        -7.6566740870475769e-02 4.1646581888198853e-01</leafValues></_>
    <_>
      <internalNodes>
        0 -1 71053 -7.2345864027738571e-03</internalNodes>
      <leafValues>
        -4.2352265119552612e-01 7.3606424033641815e-02</leafValues></_>
    <_>
      <internalNodes>
        0 -1 76620 -4.4589949538931251e-04</internalNodes>
      <leafValues>
        -2.3650546371936798e-01 1.2165117263793945e-01</leafValues></_>
    <_>
      <internalNodes>
        0 -1 59055 4.9773581326007843e-02</internalNodes>
      <leafValues>
        4.9111533910036087e-02 -5.8478993177413940e-01</leafValues></_>
    <_>
      <internalNodes>
        0 -1 73338 -1.1993835680186749e-02</internalNodes>
      <leafValues>
        4.0022662281990051e-01 -7.3219865560531616e-02</leafValues></_>
    <_>
      <internalNodes>
        0 -1 77457 -8.4203406004235148e-04</internalNodes>
      <leafValues>
        2.3348714411258698e-01 -1.3811865448951721e-01</leafValues></_>
    <_>
      <internalNodes>
        0 -1 77505 3.0691842548549175e-03</internalNodes>
      <leafValues>
        -1.3961145281791687e-01 2.8125685453414917e-01</leafValues></_>
    <_>
      <internalNodes>
        0 -1 57341 -1.8775489181280136e-02</internalNodes>
      <leafValues>
        2.8273728489875793e-01 -1.0762475430965424e-01</leafValues></_>
    <_>
      <internalNodes>
        0 -1 64734 8.3865225315093994e-04</internalNodes>
      <leafValues>
        -1.5061835944652557e-01 2.0045882463455200e-01</leafValues></_>
    <_>
      <internalNodes>
        0 -1 61474 2.4583828635513783e-03</internalNodes>
      <leafValues>
        6.6181406378746033e-02 -4.6198377013206482e-01</leafValues></_>
    <_>
      <internalNodes>
        0 -1 58525 -3.9953878149390221e-03</internalNodes>
      <leafValues>
        3.0075797438621521e-01 -1.0612080991268158e-01</leafValues></_>
    <_>
      <internalNodes>
        0 -1 77336 -3.6487043835222721e-03</internalNodes>
      <leafValues>
        -5.1445090770721436e-01 6.1236046254634857e-02</leafValues></_>
    <_>
      <internalNodes>
        0 -1 77298 2.5025289505720139e-03</internalNodes>
      <leafValues>
        5.5802017450332642e-02 -5.3651618957519531e-01</leafValues></_>
    <_>
      <internalNodes>
        0 -1 75453 -2.2023133351467550e-04</internalNodes>
      <leafValues>
        -2.5890305638313293e-01 1.0498175024986267e-01</leafValues></_>
    <_>
      <internalNodes>
        0 -1 72215 -1.0301750153303146e-03</internalNodes>
      <leafValues>
        2.7513509988784790e-01 -1.1148185282945633e-01</leafValues></_>
    <_>
      <internalNodes>
        0 -1 35763 -7.6153688132762909e-04</internalNodes>
      <leafValues>
        2.1154534816741943e-01 -1.4319838583469391e-01</leafValues></_>
    <_>
      <internalNodes>
        0 -1 30250 -1.5272081363946199e-03</internalNodes>
      <leafValues>
        3.8081273436546326e-01 -1.0799501091241837e-01</leafValues></_>
    <_>
      <internalNodes>
        0 -1 29756 -4.8212893307209015e-03</internalNodes>
      <leafValues>
        -6.2210732698440552e-01 5.8514267206192017e-02</leafValues></_>
    <_>
      <internalNodes>
        0 -1 73991 -2.0918482914566994e-03</internalNodes>
      <leafValues>
        2.3593845963478088e-01 -1.2951296567916870e-01</leafValues></_>
    <_>
      <internalNodes>
        0 -1 72213 -1.3287321198731661e-03</internalNodes>
      <leafValues>
        2.4010933935642242e-01 -1.1819820106029510e-01</leafValues></_>
    <_>
      <internalNodes>
        0 -1 73536 -1.2216063216328621e-02</internalNodes>
      <leafValues>
        -5.0986242294311523e-01 6.4068660140037537e-02</leafValues></_>
    <_>
      <internalNodes>
        0 -1 34175 -4.4186506420373917e-03</internalNodes>
      <leafValues>
        1.9265228509902954e-01 -1.6140726208686829e-01</leafValues></_>
    <_>
      <internalNodes>
        0 -1 77245 -5.8491476811468601e-03</internalNodes>
      <leafValues>
        3.5789716243743896e-01 -9.4928197562694550e-02</leafValues></_>
    <_>
      <internalNodes>
        0 -1 78074 3.5186824388802052e-03</internalNodes>
      <leafValues>
        -9.5916271209716797e-02 3.6202663183212280e-01</leafValues></_></weakClassifiers></stage9>
</opencv_storage>
