<?xml version="1.0"?>
<opencv_storage>
<stage2>
  <maxWeakCount>25</maxWeakCount>
  <stageThreshold>-8.0008524656295776e-01</stageThreshold>
  <weakClassifiers>
    <_>
      <internalNodes>
        0 -1 78012 -7.4739390984177589e-03</internalNodes>
      <leafValues>
        6.1938959360122681e-01 1.3240857422351837e-01</leafValues></_>
    <_>
      <internalNodes>
        0 -1 23612 2.5478214956820011e-03</internalNodes>
      <leafValues>
        -1.6797608137130737e-01 4.3401727080345154e-01</leafValues></_>
    <_>
      <internalNodes>
        0 -1 74175 5.0770156085491180e-03</internalNodes>
      <leafValues>
        -2.1860741078853607e-01 3.0240598320960999e-01</leafValues></_>
    <_>
      <internalNodes>
        0 -1 50667 8.3268098533153534e-03</internalNodes>
      <leafValues>
        -1.4302065968513489e-01 5.5706775188446045e-01</leafValues></_>
    <_>
      <internalNodes>
        0 -1 55135 -1.7730658873915672e-03</internalNodes>
      <leafValues>
        3.4889397025108337e-01 -2.1093659102916718e-01</leafValues></_>
    <_>
      <internalNodes>
        0 -1 66301 -6.5767962951213121e-04</internalNodes>
      <leafValues>
        3.2599160075187683e-01 -1.7919906973838806e-01</leafValues></_>
    <_>
      <internalNodes>
        0 -1 35764 -5.2633089944720268e-04</internalNodes>
      <leafValues>
        3.4571912884712219e-01 -2.0510984957218170e-01</leafValues></_>
    <_>
      <internalNodes>
        0 -1 64203 -2.4752024561166763e-02</internalNodes>
      <leafValues>
        5.5166107416152954e-01 -1.1521704494953156e-01</leafValues></_>
    <_>
      <internalNodes>
        0 -1 68664 5.2181864157319069e-03</internalNodes>
      <leafValues>
        -1.3671171665191650e-01 4.4195866584777832e-01</leafValues></_>
    <_>
      <internalNodes>
        0 -1 61339 -5.2579291164875031e-02</internalNodes>
      <leafValues>
        7.0476460456848145e-01 -7.5326487421989441e-02</leafValues></_>
    <_>
      <internalNodes>
        0 -1 78196 4.0521466871723533e-05</internalNodes>
      <leafValues>
        -2.8232428431510925e-01 2.5300037860870361e-01</leafValues></_>
    <_>
      <internalNodes>
        0 -1 69917 3.1378194689750671e-02</internalNodes>
      <leafValues>
        -1.9963252544403076e-01 3.3745163679122925e-01</leafValues></_>
    <_>
      <internalNodes>
        0 -1 74773 2.7793911285698414e-03</internalNodes>
      <leafValues>
        -1.6623875498771667e-01 3.6977478861808777e-01</leafValues></_>
    <_>
      <internalNodes>
        0 -1 77179 -2.3198404815047979e-03</internalNodes>
      <leafValues>
        2.8616854548454285e-01 -2.0627176761627197e-01</leafValues></_>
    <_>
      <internalNodes>
        0 -1 10249 -1.8262468278408051e-02</internalNodes>
      <leafValues>
        3.7827670574188232e-01 -1.5672662854194641e-01</leafValues></_>
    <_>
      <internalNodes>
        0 -1 42384 1.1714834719896317e-01</internalNodes>
      <leafValues>
        -8.1462666392326355e-02 6.2710690498352051e-01</leafValues></_>
    <_>
      <internalNodes>
        0 -1 43329 -4.5929368585348129e-02</internalNodes>
      <leafValues>
        5.2098983526229858e-01 -1.2283398956060410e-01</leafValues></_>
    <_>
      <internalNodes>
        0 -1 61697 1.3021519407629967e-02</internalNodes>
      <leafValues>
        -1.3524444401264191e-01 4.2943242192268372e-01</leafValues></_>
    <_>
      <internalNodes>
        0 -1 33826 -6.6699311137199402e-03</internalNodes>
      <leafValues>
        4.7065788507461548e-01 -1.0467268526554108e-01</leafValues></_>
    <_>
      <internalNodes>
        0 -1 12200 6.1144791543483734e-03</internalNodes>
      <leafValues>
        -1.5585510432720184e-01 3.5450664162635803e-01</leafValues></_>
    <_>
      <internalNodes>
        0 -1 61474 3.9575956761837006e-03</internalNodes>
      <leafValues>
        8.1417649984359741e-02 -7.4594587087631226e-01</leafValues></_>
    <_>
      <internalNodes>
        0 -1 64898 3.0807065195403993e-04</internalNodes>
      <leafValues>
        -2.3290176689624786e-01 2.3335607349872589e-01</leafValues></_>
    <_>
      <internalNodes>
        0 -1 16721 6.8340073339641094e-03</internalNodes>
      <leafValues>
        -1.0578528046607971e-01 4.9293047189712524e-01</leafValues></_>
    <_>
      <internalNodes>
        0 -1 66427 2.5109928101301193e-02</internalNodes>
      <leafValues>
        -6.0486141592264175e-02 7.3262923955917358e-01</leafValues></_>
    <_>
      <internalNodes>
        0 -1 76519 7.6054572127759457e-04</internalNodes>
      <leafValues>
        -1.3753765821456909e-01 3.3356127142906189e-01</leafValues></_></weakClassifiers></stage2>
</opencv_storage>
