<?xml version="1.0"?>
<opencv_storage>
<stage2>
  <maxWeakCount>23</maxWeakCount>
  <stageThreshold>-1.0148204565048218e+00</stageThreshold>
  <weakClassifiers>
    <_>
      <internalNodes>
        0 -1 64898 2.4512159870937467e-04</internalNodes>
      <leafValues>
        -8.4439087659120560e-03 5.8608382940292358e-01</leafValues></_>
    <_>
      <internalNodes>
        0 -1 60835 -8.2927374169230461e-03</internalNodes>
      <leafValues>
        5.2848112583160400e-01 -1.5397047996520996e-01</leafValues></_>
    <_>
      <internalNodes>
        0 -1 73610 1.8790341913700104e-02</internalNodes>
      <leafValues>
        -1.7359590530395508e-01 5.1329094171524048e-01</leafValues></_>
    <_>
      <internalNodes>
        0 -1 74052 -1.5440550632774830e-02</internalNodes>
      <leafValues>
        5.0807219743728638e-01 -1.7548952996730804e-01</leafValues></_>
    <_>
      <internalNodes>
        0 -1 45950 9.8425839096307755e-03</internalNodes>
      <leafValues>
        -1.6000793874263763e-01 4.9980741739273071e-01</leafValues></_>
    <_>
      <internalNodes>
        0 -1 50545 -2.1306793205440044e-03</internalNodes>
      <leafValues>
        3.9300754666328430e-01 -1.9804225862026215e-01</leafValues></_>
    <_>
      <internalNodes>
        0 -1 73270 -1.3889141380786896e-02</internalNodes>
      <leafValues>
        5.4627585411071777e-01 -1.3929712772369385e-01</leafValues></_>
    <_>
      <internalNodes>
        0 -1 76519 4.8944627633318305e-04</internalNodes>
      <leafValues>
        -2.0591889321804047e-01 3.5810562968254089e-01</leafValues></_>
    <_>
      <internalNodes>
        0 -1 38537 3.1211610883474350e-02</internalNodes>
      <leafValues>
        -1.5878477692604065e-01 4.6324759721755981e-01</leafValues></_>
    <_>
      <internalNodes>
        0 -1 78012 -8.6525250226259232e-03</internalNodes>
      <leafValues>
        4.0674424171447754e-01 -1.7957046627998352e-01</leafValues></_>
    <_>
      <internalNodes>
        0 -1 74976 1.4923645649105310e-03</internalNodes>
      <leafValues>
        -1.8990972638130188e-01 3.6433210968971252e-01</leafValues></_>
    <_>
      <internalNodes>
        0 -1 3889 -6.3031287863850594e-03</internalNodes>
      <leafValues>
        5.3310912847518921e-01 -1.1511971056461334e-01</leafValues></_>
    <_>
      <internalNodes>
        0 -1 61250 3.7211598828434944e-03</internalNodes>
      <leafValues>
        6.9256737828254700e-02 -9.2393654584884644e-01</leafValues></_>
    <_>
      <internalNodes>
        0 -1 34122 4.7484003007411957e-03</internalNodes>
      <leafValues>
        -2.3248177766799927e-01 2.9326665401458740e-01</leafValues></_>
    <_>
      <internalNodes>
        0 -1 61441 1.7200338188558817e-03</internalNodes>
      <leafValues>
        1.0139277577400208e-01 -8.1610351800918579e-01</leafValues></_>
    <_>
      <internalNodes>
        0 -1 54535 -1.4360039494931698e-03</internalNodes>
      <leafValues>
        3.2634633779525757e-01 -2.2179223597049713e-01</leafValues></_>
    <_>
      <internalNodes>
        0 -1 60843 -5.3280796855688095e-03</internalNodes>
      <leafValues>
        3.7077918648719788e-01 -1.8637381494045258e-01</leafValues></_>
    <_>
      <internalNodes>
        0 -1 78113 3.1765582971274853e-03</internalNodes>
      <leafValues>
        -1.4617064595222473e-01 4.4940957427024841e-01</leafValues></_>
    <_>
      <internalNodes>
        0 -1 77440 2.8581612277776003e-03</internalNodes>
      <leafValues>
        1.3782581686973572e-01 -5.9624743461608887e-01</leafValues></_>
    <_>
      <internalNodes>
        0 -1 17277 2.9555778019130230e-03</internalNodes>
      <leafValues>
        -1.8192338943481445e-01 4.0131786465644836e-01</leafValues></_>
    <_>
      <internalNodes>
        0 -1 69306 4.0404416620731354e-02</internalNodes>
      <leafValues>
        -8.0178432166576385e-02 8.2787710428237915e-01</leafValues></_>
    <_>
      <internalNodes>
        0 -1 43050 5.3927078843116760e-02</internalNodes>
      <leafValues>
        -8.9022040367126465e-02 7.2720223665237427e-01</leafValues></_>
    <_>
      <internalNodes>
        0 -1 50617 2.9648546129465103e-02</internalNodes>
      <leafValues>
        -1.3735727965831757e-01 4.6862652897834778e-01</leafValues></_></weakClassifiers></stage2>
</opencv_storage>
