<?xml version="1.0"?>
<opencv_storage>
<stage1>
  <maxWeakCount>15</maxWeakCount>
  <stageThreshold>-7.0560091733932495e-01</stageThreshold>
  <weakClassifiers>
    <_>
      <internalNodes>
        0 -1 64898 2.0116110681556165e-04</internalNodes>
      <leafValues>
        -1.5037594363093376e-02 5.7465279102325439e-01</leafValues></_>
    <_>
      <internalNodes>
        0 -1 77172 2.2828029468655586e-03</internalNodes>
      <leafValues>
        -2.1154762804508209e-01 4.7132220864295959e-01</leafValues></_>
    <_>
      <internalNodes>
        0 -1 41456 -4.0256626904010773e-02</internalNodes>
      <leafValues>
        6.9014012813568115e-01 -1.5638051927089691e-01</leafValues></_>
    <_>
      <internalNodes>
        0 -1 28431 8.8431369513273239e-03</internalNodes>
      <leafValues>
        -2.0747765898704529e-01 5.5176675319671631e-01</leafValues></_>
    <_>
      <internalNodes>
        0 -1 76040 4.2980080470442772e-03</internalNodes>
      <leafValues>
        -2.6045367121696472e-01 4.5392951369285583e-01</leafValues></_>
    <_>
      <internalNodes>
        0 -1 72091 -5.2974503487348557e-03</internalNodes>
      <leafValues>
        4.8894855380058289e-01 -1.9349220395088196e-01</leafValues></_>
    <_>
      <internalNodes>
        0 -1 34173 -1.4144631102681160e-02</internalNodes>
      <leafValues>
        6.1291104555130005e-01 -1.4245489239692688e-01</leafValues></_>
    <_>
      <internalNodes>
        0 -1 3884 -3.1602946110069752e-03</internalNodes>
      <leafValues>
        4.4737517833709717e-01 -1.6095355153083801e-01</leafValues></_>
    <_>
      <internalNodes>
        0 -1 29812 2.4608536623418331e-03</internalNodes>
      <leafValues>
        -1.5763865411281586e-01 4.7937771677970886e-01</leafValues></_>
    <_>
      <internalNodes>
        0 -1 64898 1.8620525952428579e-03</internalNodes>
      <leafValues>
        1.0778529942035675e-01 -8.6032885313034058e-01</leafValues></_>
    <_>
      <internalNodes>
        0 -1 41669 -1.0124505497515202e-02</internalNodes>
      <leafValues>
        5.6285816431045532e-01 -1.5700227022171021e-01</leafValues></_>
    <_>
      <internalNodes>
        0 -1 67106 -2.7337022125720978e-02</internalNodes>
      <leafValues>
        4.2173478007316589e-01 -2.1172229945659637e-01</leafValues></_>
    <_>
      <internalNodes>
        0 -1 70996 3.2076770439743996e-03</internalNodes>
      <leafValues>
        -1.7648018896579742e-01 3.7185341119766235e-01</leafValues></_>
    <_>
      <internalNodes>
        0 -1 2779 -4.7807190567255020e-03</internalNodes>
      <leafValues>
        5.1771318912506104e-01 -1.1851287633180618e-01</leafValues></_>
    <_>
      <internalNodes>
        0 -1 65016 -3.9430342614650726e-02</internalNodes>
      <leafValues>
        -6.0014778375625610e-01 1.2499344348907471e-01</leafValues></_></weakClassifiers></stage1>
</opencv_storage>
