<?xml version="1.0"?>
<opencv_storage>
<stage6>
  <maxWeakCount>33</maxWeakCount>
  <stageThreshold>-7.3091542720794678e-01</stageThreshold>
  <weakClassifiers>
    <_>
      <internalNodes>
        0 -1 23562 8.3952676504850388e-03</internalNodes>
      <leafValues>
        2.1492743492126465e-01 6.7395627498626709e-01</leafValues></_>
    <_>
      <internalNodes>
        0 -1 61872 1.4313001185655594e-02</internalNodes>
      <leafValues>
        -7.4027694761753082e-02 5.3444099426269531e-01</leafValues></_>
    <_>
      <internalNodes>
        0 -1 54116 2.9912140220403671e-02</internalNodes>
      <leafValues>
        -1.0504840314388275e-01 6.7368412017822266e-01</leafValues></_>
    <_>
      <internalNodes>
        0 -1 7588 -1.2020311318337917e-02</internalNodes>
      <leafValues>
        4.1242200136184692e-01 -1.1906597763299942e-01</leafValues></_>
    <_>
      <internalNodes>
        0 -1 76457 -4.8880795948207378e-03</internalNodes>
      <leafValues>
        -5.7575845718383789e-01 7.5318239629268646e-02</leafValues></_>
    <_>
      <internalNodes>
        0 -1 69175 3.5260978620499372e-04</internalNodes>
      <leafValues>
        -1.9494211673736572e-01 2.3186637461185455e-01</leafValues></_>
    <_>
      <internalNodes>
        0 -1 65064 8.1525206041987985e-05</internalNodes>
      <leafValues>
        1.6760689020156860e-01 -2.5970473885536194e-01</leafValues></_>
    <_>
      <internalNodes>
        0 -1 66302 -1.7835304606705904e-03</internalNodes>
      <leafValues>
        -4.8085430264472961e-01 1.0025770962238312e-01</leafValues></_>
    <_>
      <internalNodes>
        0 -1 67858 2.4082802236080170e-02</internalNodes>
      <leafValues>
        -1.2696330249309540e-01 3.9498355984687805e-01</leafValues></_>
    <_>
      <internalNodes>
        0 -1 77165 2.6750762481242418e-04</internalNodes>
      <leafValues>
        -2.1623034775257111e-01 2.0573222637176514e-01</leafValues></_>
    <_>
      <internalNodes>
        0 -1 66681 1.5531392768025398e-02</internalNodes>
      <leafValues>
        -1.1477965116500854e-01 5.0920009613037109e-01</leafValues></_>
    <_>
      <internalNodes>
        0 -1 59541 -1.2683255597949028e-02</internalNodes>
      <leafValues>
        3.5189872980117798e-01 -1.2124559283256531e-01</leafValues></_>
    <_>
      <internalNodes>
        0 -1 78083 -3.5544550046324730e-03</internalNodes>
      <leafValues>
        2.5627988576889038e-01 -2.0421248674392700e-01</leafValues></_>
    <_>
      <internalNodes>
        0 -1 66301 -5.2370241610333323e-04</internalNodes>
      <leafValues>
        2.5758272409439087e-01 -1.8423983454704285e-01</leafValues></_>
    <_>
      <internalNodes>
        0 -1 76936 2.7894317172467709e-03</internalNodes>
      <leafValues>
        6.7715846002101898e-02 -7.6484954357147217e-01</leafValues></_>
    <_>
      <internalNodes>
        0 -1 61064 3.5192705690860748e-03</internalNodes>
      <leafValues>
        7.1194529533386230e-02 -6.1789494752883911e-01</leafValues></_>
    <_>
      <internalNodes>
        0 -1 78082 -2.4806954897940159e-03</internalNodes>
      <leafValues>
        2.9025185108184814e-01 -1.5906381607055664e-01</leafValues></_>
    <_>
      <internalNodes>
        0 -1 54691 -1.7223770264536142e-03</internalNodes>
      <leafValues>
        2.7699613571166992e-01 -1.7634998261928558e-01</leafValues></_>
    <_>
      <internalNodes>
        0 -1 61655 2.7350299060344696e-03</internalNodes>
      <leafValues>
        7.8449212014675140e-02 -6.2728184461593628e-01</leafValues></_>
    <_>
      <internalNodes>
        0 -1 61655 7.0005445741117001e-04</internalNodes>
      <leafValues>
        -2.3567390441894531e-01 3.0654108524322510e-01</leafValues></_>
    <_>
      <internalNodes>
        0 -1 18899 7.3442146182060242e-02</internalNodes>
      <leafValues>
        -1.1389965564012527e-01 4.4289261102676392e-01</leafValues></_>
    <_>
      <internalNodes>
        0 -1 11891 -7.0874519646167755e-02</internalNodes>
      <leafValues>
        4.2302468419075012e-01 -1.1005128175020218e-01</leafValues></_>
    <_>
      <internalNodes>
        0 -1 74243 7.5840251520276070e-04</internalNodes>
      <leafValues>
        -1.6703687608242035e-01 2.6539069414138794e-01</leafValues></_>
    <_>
      <internalNodes>
        0 -1 9094 5.0132023170590401e-03</internalNodes>
      <leafValues>
        -1.4888586103916168e-01 3.2890418171882629e-01</leafValues></_>
    <_>
      <internalNodes>
        0 -1 17813 -5.7596818078309298e-04</internalNodes>
      <leafValues>
        3.1264981627464294e-01 -1.5081283450126648e-01</leafValues></_>
    <_>
      <internalNodes>
        0 -1 68105 -5.1986449398100376e-04</internalNodes>
      <leafValues>
        2.6718962192535400e-01 -1.7189921438694000e-01</leafValues></_>
    <_>
      <internalNodes>
        0 -1 61845 7.9213632270693779e-03</internalNodes>
      <leafValues>
        -1.3326893746852875e-01 3.2717001438140869e-01</leafValues></_>
    <_>
      <internalNodes>
        0 -1 58517 1.1635515838861465e-03</internalNodes>
      <leafValues>
        -1.7643217742443085e-01 2.5289484858512878e-01</leafValues></_>
    <_>
      <internalNodes>
        0 -1 51766 -7.9783439636230469e-02</internalNodes>
      <leafValues>
        6.3195472955703735e-01 -7.4820272624492645e-02</leafValues></_>
    <_>
      <internalNodes>
        0 -1 35263 -2.9708317015320063e-03</internalNodes>
      <leafValues>
        -4.2491358518600464e-01 1.1353244632482529e-01</leafValues></_>
    <_>
      <internalNodes>
        0 -1 35262 -3.2270932570099831e-03</internalNodes>
      <leafValues>
        3.1728208065032959e-01 -1.3748621940612793e-01</leafValues></_>
    <_>
      <internalNodes>
        0 -1 9606 1.8657551845535636e-03</internalNodes>
      <leafValues>
        1.0846966505050659e-01 -4.0371868014335632e-01</leafValues></_>
    <_>
      <internalNodes>
        0 -1 12190 -2.5298004038631916e-03</internalNodes>
      <leafValues>
        2.5816425681114197e-01 -1.7190878093242645e-01</leafValues></_></weakClassifiers></stage6>
</opencv_storage>
