<?xml version="1.0"?>
<opencv_storage>
<stage0>
  <maxWeakCount>12</maxWeakCount>
  <stageThreshold>-1.1186134815216064e+00</stageThreshold>
  <weakClassifiers>
    <_>
      <internalNodes>
        0 -1 75923 8.1499834777787328e-04</internalNodes>
      <leafValues>
        3.5906642675399780e-02 7.2966510057449341e-01</leafValues></_>
    <_>
      <internalNodes>
        0 -1 65008 5.8643207885324955e-03</internalNodes>
      <leafValues>
        -3.5112863779067993e-01 4.0295672416687012e-01</leafValues></_>
    <_>
      <internalNodes>
        0 -1 57394 -2.4529006332159042e-03</internalNodes>
      <leafValues>
        6.4737856388092041e-01 -1.9379842281341553e-01</leafValues></_>
    <_>
      <internalNodes>
        0 -1 65064 -5.8540096506476402e-04</internalNodes>
      <leafValues>
        4.2168223857879639e-01 -3.0822220444679260e-01</leafValues></_>
    <_>
      <internalNodes>
        0 -1 63093 1.4020602684468031e-03</internalNodes>
      <leafValues>
        -3.0320659279823303e-01 4.5089420676231384e-01</leafValues></_>
    <_>
      <internalNodes>
        0 -1 77179 -3.0875019729137421e-03</internalNodes>
      <leafValues>
        4.8507529497146606e-01 -2.4289554357528687e-01</leafValues></_>
    <_>
      <internalNodes>
        0 -1 12609 -1.7029144801199436e-03</internalNodes>
      <leafValues>
        4.6255239844322205e-01 -2.3763872683048248e-01</leafValues></_>
    <_>
      <internalNodes>
        0 -1 77966 -6.1863185837864876e-03</internalNodes>
      <leafValues>
        4.4114741683006287e-01 -2.1962229907512665e-01</leafValues></_>
    <_>
      <internalNodes>
        0 -1 10285 2.7583935298025608e-03</internalNodes>
      <leafValues>
        -1.9562247395515442e-01 5.2598458528518677e-01</leafValues></_>
    <_>
      <internalNodes>
        0 -1 58517 9.5947773661464453e-04</internalNodes>
      <leafValues>
        -2.0144052803516388e-01 4.2220687866210938e-01</leafValues></_>
    <_>
      <internalNodes>
        0 -1 37194 -3.0851487070322037e-02</internalNodes>
      <leafValues>
        4.5038974285125732e-01 -2.1090207993984222e-01</leafValues></_>
    <_>
      <internalNodes>
        0 -1 11309 -6.9649359211325645e-03</internalNodes>
      <leafValues>
        4.3062156438827515e-01 -2.2497810423374176e-01</leafValues></_></weakClassifiers></stage0>
</opencv_storage>
