<?xml version="1.0"?>
<opencv_storage>
<stage3>
  <maxWeakCount>23</maxWeakCount>
  <stageThreshold>-7.2197329998016357e-01</stageThreshold>
  <weakClassifiers>
    <_>
      <internalNodes>
        0 -1 64898 3.6667066160589457e-04</internalNodes>
      <leafValues>
        6.8027213215827942e-02 5.5243444442749023e-01</leafValues></_>
    <_>
      <internalNodes>
        0 -1 64164 -4.3422352522611618e-02</internalNodes>
      <leafValues>
        6.3557088375091553e-01 -8.0388382077217102e-02</leafValues></_>
    <_>
      <internalNodes>
        0 -1 73762 2.3531647399067879e-02</internalNodes>
      <leafValues>
        -1.5693607926368713e-01 5.9546965360641479e-01</leafValues></_>
    <_>
      <internalNodes>
        0 -1 40974 -2.5055923033505678e-03</internalNodes>
      <leafValues>
        3.7474781274795532e-01 -1.3897694647312164e-01</leafValues></_>
    <_>
      <internalNodes>
        0 -1 61474 3.0646042432636023e-03</internalNodes>
      <leafValues>
        4.5754093676805496e-02 -8.3838242292404175e-01</leafValues></_>
    <_>
      <internalNodes>
        0 -1 50667 7.0864567533135414e-03</internalNodes>
      <leafValues>
        -1.4061704277992249e-01 4.7438269853591919e-01</leafValues></_>
    <_>
      <internalNodes>
        0 -1 61397 3.0815608799457550e-02</internalNodes>
      <leafValues>
        -2.5007432699203491e-01 2.4418880045413971e-01</leafValues></_>
    <_>
      <internalNodes>
        0 -1 77906 -7.4892342090606689e-03</internalNodes>
      <leafValues>
        3.0127081274986267e-01 -2.0230989158153534e-01</leafValues></_>
    <_>
      <internalNodes>
        0 -1 78086 -6.4802723936736584e-03</internalNodes>
      <leafValues>
        3.7858325242996216e-01 -1.6697329282760620e-01</leafValues></_>
    <_>
      <internalNodes>
        0 -1 48552 -1.9939145073294640e-02</internalNodes>
      <leafValues>
        5.5808538198471069e-01 -1.4278320968151093e-01</leafValues></_>
    <_>
      <internalNodes>
        0 -1 68479 1.3540818355977535e-02</internalNodes>
      <leafValues>
        -1.0988903790712357e-01 5.4728078842163086e-01</leafValues></_>
    <_>
      <internalNodes>
        0 -1 70996 -8.8105220347642899e-03</internalNodes>
      <leafValues>
        5.0113135576248169e-01 -1.1360725015401840e-01</leafValues></_>
    <_>
      <internalNodes>
        0 -1 77357 -4.6575046144425869e-04</internalNodes>
      <leafValues>
        2.8748258948326111e-01 -2.0053420960903168e-01</leafValues></_>
    <_>
      <internalNodes>
        0 -1 11741 6.9578969851136208e-04</internalNodes>
      <leafValues>
        -1.9177141785621643e-01 3.0436381697654724e-01</leafValues></_>
    <_>
      <internalNodes>
        0 -1 61627 3.1793192028999329e-03</internalNodes>
      <leafValues>
        7.3689594864845276e-02 -7.6826077699661255e-01</leafValues></_>
    <_>
      <internalNodes>
        0 -1 78030 2.0487622823566198e-03</internalNodes>
      <leafValues>
        8.7857648730278015e-02 -6.0048037767410278e-01</leafValues></_>
    <_>
      <internalNodes>
        0 -1 66623 -3.1370157375931740e-03</internalNodes>
      <leafValues>
        4.4474318623542786e-01 -1.4300931990146637e-01</leafValues></_>
    <_>
      <internalNodes>
        0 -1 74182 2.2897800430655479e-02</internalNodes>
      <leafValues>
        -9.3939244747161865e-02 6.3188326358795166e-01</leafValues></_>
    <_>
      <internalNodes>
        0 -1 64900 -3.0514402315020561e-03</internalNodes>
      <leafValues>
        -8.0801296234130859e-01 8.7866298854351044e-02</leafValues></_>
    <_>
      <internalNodes>
        0 -1 68683 -3.1422846950590611e-03</internalNodes>
      <leafValues>
        4.1659301519393921e-01 -1.5132859349250793e-01</leafValues></_>
    <_>
      <internalNodes>
        0 -1 55372 -4.0693241171538830e-03</internalNodes>
      <leafValues>
        -8.6633723974227905e-01 7.4124328792095184e-02</leafValues></_>
    <_>
      <internalNodes>
        0 -1 75816 5.2480725571513176e-04</internalNodes>
      <leafValues>
        -2.3668353259563446e-01 2.2945551574230194e-01</leafValues></_>
    <_>
      <internalNodes>
        0 -1 34569 5.4613715037703514e-03</internalNodes>
      <leafValues>
        -2.0305417478084564e-01 3.0463305115699768e-01</leafValues></_></weakClassifiers></stage3>
</opencv_storage>
