<?xml version="1.0"?>
<opencv_storage>
<stage4>
  <maxWeakCount>25</maxWeakCount>
  <stageThreshold>-6.0713958740234375e-01</stageThreshold>
  <weakClassifiers>
    <_>
      <internalNodes>
        0 -1 13077 7.9629875719547272e-02</internalNodes>
      <leafValues>
        2.0945945382118225e-01 7.2340422868728638e-01</leafValues></_>
    <_>
      <internalNodes>
        0 -1 78051 -1.0338148102164268e-02</internalNodes>
      <leafValues>
        4.3023461103439331e-01 -1.2372639775276184e-01</leafValues></_>
    <_>
      <internalNodes>
        0 -1 61474 5.3606863366439939e-04</internalNodes>
      <leafValues>
        -2.6774245500564575e-01 2.1802678704261780e-01</leafValues></_>
    <_>
      <internalNodes>
        0 -1 73987 1.0835101129487157e-03</internalNodes>
      <leafValues>
        -2.2422020137310028e-01 2.8563991189002991e-01</leafValues></_>
    <_>
      <internalNodes>
        0 -1 63723 3.3451169729232788e-02</internalNodes>
      <leafValues>
        -1.3126061856746674e-01 4.7523266077041626e-01</leafValues></_>
    <_>
      <internalNodes>
        0 -1 45130 -4.3290592730045319e-03</internalNodes>
      <leafValues>
        3.6810761690139771e-01 -2.0803126692771912e-01</leafValues></_>
    <_>
      <internalNodes>
        0 -1 66677 5.0770537927746773e-03</internalNodes>
      <leafValues>
        -1.3788303732872009e-01 4.5128610730171204e-01</leafValues></_>
    <_>
      <internalNodes>
        0 -1 64931 3.3159153535962105e-03</internalNodes>
      <leafValues>
        9.7726725041866302e-02 -7.5247585773468018e-01</leafValues></_>
    <_>
      <internalNodes>
        0 -1 29867 3.4141272772103548e-03</internalNodes>
      <leafValues>
        -1.8747042119503021e-01 3.6719182133674622e-01</leafValues></_>
    <_>
      <internalNodes>
        0 -1 29331 3.1621959060430527e-03</internalNodes>
      <leafValues>
        -1.4869220554828644e-01 3.8572853803634644e-01</leafValues></_>
    <_>
      <internalNodes>
        0 -1 14644 -3.0785325914621353e-02</internalNodes>
      <leafValues>
        4.4803193211555481e-01 -1.4944557845592499e-01</leafValues></_>
    <_>
      <internalNodes>
        0 -1 23066 -1.1262225918471813e-02</internalNodes>
      <leafValues>
        4.9091717600822449e-01 -1.0252705216407776e-01</leafValues></_>
    <_>
      <internalNodes>
        0 -1 58578 5.4228869266808033e-03</internalNodes>
      <leafValues>
        -1.0748733580112457e-01 4.4310563802719116e-01</leafValues></_>
    <_>
      <internalNodes>
        0 -1 20884 2.8305968735367060e-03</internalNodes>
      <leafValues>
        9.7715578973293304e-02 -6.6558849811553955e-01</leafValues></_>
    <_>
      <internalNodes>
        0 -1 2157 1.0346055962145329e-02</internalNodes>
      <leafValues>
        -1.4175282418727875e-01 3.9276456832885742e-01</leafValues></_>
    <_>
      <internalNodes>
        0 -1 4862 -1.7876469064503908e-03</internalNodes>
      <leafValues>
        3.0018118023872375e-01 -1.7500935494899750e-01</leafValues></_>
    <_>
      <internalNodes>
        0 -1 12262 -9.6479393541812897e-03</internalNodes>
      <leafValues>
        3.6103168129920959e-01 -1.3286240398883820e-01</leafValues></_>
    <_>
      <internalNodes>
        0 -1 57427 -4.2327637784183025e-03</internalNodes>
      <leafValues>
        -5.8498638868331909e-01 9.0581268072128296e-02</leafValues></_>
    <_>
      <internalNodes>
        0 -1 50605 -4.3342933058738708e-03</internalNodes>
      <leafValues>
        4.0270310640335083e-01 -1.2605425715446472e-01</leafValues></_>
    <_>
      <internalNodes>
        0 -1 40661 4.3290415778756142e-03</internalNodes>
      <leafValues>
        -1.7013435065746307e-01 3.3396732807159424e-01</leafValues></_>
    <_>
      <internalNodes>
        0 -1 68103 3.5017039626836777e-03</internalNodes>
      <leafValues>
        7.1906067430973053e-02 -7.5215858221054077e-01</leafValues></_>
    <_>
      <internalNodes>
        0 -1 78029 8.9876295533031225e-05</internalNodes>
      <leafValues>
        1.3508945703506470e-01 -3.4247168898582458e-01</leafValues></_>
    <_>
      <internalNodes>
        0 -1 78057 -4.9416976980865002e-03</internalNodes>
      <leafValues>
        -7.3831045627593994e-01 6.4401395618915558e-02</leafValues></_>
    <_>
      <internalNodes>
        0 -1 66628 -5.2790683694183826e-03</internalNodes>
      <leafValues>
        3.1084871292114258e-01 -1.4675322175025940e-01</leafValues></_>
    <_>
      <internalNodes>
        0 -1 64768 7.2726840153336525e-03</internalNodes>
      <leafValues>
        -1.3201586902141571e-01 3.9152944087982178e-01</leafValues></_></weakClassifiers></stage4>
</opencv_storage>
